{"ini": [-1.5151145882378485, -0.7787155504194352, -0.44204328426917106, -0.15817727537135579, -0.005989940980450805], "fin": [-0.8802246329703716, -1.077129004635307, -0.27859878209033234, -1.5214930641146975, -0.9639094118885242], "trans": {"a": [[0.42866242304807756, -1.2766124952328823, 0.23640535956607528, 0.9019053653204229, -0.3072605502280666], [0.5413385627400865, -1.7108286105249475, -1.088789590041461, 0.3178153777728647, 0.8778231990865141], [-0.5181732408334023, 0.15630674735408742, -0.7726123916659278, 0.06376959876930195, -2.4280416376071443], [-0.3744083497456161, 0.026897760041116683, -1.109804551720026, -0.33940276488891047, -0.3685129218423504], [0.47989358915287766, 0.3388898940947423, 1.5860995771167103, 1.9185442963798995, -1.0575000564055774]], "b": [[-0.23765061066279122, -2.5011093173739307, -0.9987035082783468, -0.04867271917119675, -0.057713388588256614], [2.204634818956175, 0.0991559528751809, -0.17137084966009053, 0.8329524258383826, 0.8316526926570569], [1.6183110348214644, -1.9279817989798251, 0.019730701591225766, 0.970080704702223, 0.02800182213395963], [1.469065651084996, 0.541345218887943, 1.6121322334031192, 0.9452866101309199, 0.9889070818600547], [0.014965458391839671, 0.6436171332135961, 0.5984343711388895, 2.7554814340701457, -2.33164932500781]], "c": [[-0.17356500967907737, -0.1986517833373626, 1.0734667115958942, -0.150671513746559, -0.20976707206698333], [1.790782539148405, 0.6621853874737066, -0.32500780143106656, -1.3334104214580274, -0.2841369634142455], [0.23754844669878528, -0.17333482418497093, -0.3821212166435739, 0.20392930675523116, -1.4439452480417145], [-0.12082399731591834, -0.9808333846752413, -0.19688447306514495, 1.9402812973738197, 0.059454822813306704], [0.2520905553491943, 0.9572981325512777, 0.623970579694568, -1.5958525584119716, -0.5705766776238311]], "d": [[0.38112382989614174, -0.2966065191916965, -1.5235003376680012, 0.0597513141786005, -0.5244050880155671], [-0.9125648030122571, -0.09820169744617924, -1.1568295217324327, -1.9249848486706818, 0.16135422142752193], [0.5071215552726643, -0.804434592501612, -0.22920649972229404, -0.317521013184845, -0.25257421957624326], [-0.6148269854160758, 0.11496245673781245, -1.1729801090347514, -1.1025119739363338, -0.8181433138806922], [1.0448993374665285, -0.5402768629246849, 1.3927598067148477, 1.2481167622011888, -0.1089128241647952]], "e": [[0.4077385472232572, -0.3651125088412245, 0.0035695944521985977, 1.4157019119107606, 1.5435985528603366], [0.4703895043619322, -0.8563470593223044, -0.7952327576431514, -0.9653103176258314, 0.11385308103780338], [0.8244447264612229, -0.4578302637541677, -0.27393475551444957, 2.031253799793167, 0.14485443434612177], [-0.6007597829438259, -1.0386727202568544, 1.8073355353636509, -1.2657884863301556, 1.485989666249746], [0.5158849091909611, -0.04477597453496414, 0.319912104202334, -1.182065711860125, -0.14161883793803492]], "f": [[-0.17038641269237853, 0.6182277930277843, 0.2847905308509616, 1.2315645617494024, -0.19803397336827377], [-0.49610985102598204, -1.101039869585087, 0.8496859358085953, 0.3023465133015097, 1.3707261042927004], [0.3034645045384532, 0.9033324941087673, 0.6131514064843714, 1.3333504779802896, 0.9413979998003085], [0.1891152797194434, 0.31879081598159265, -1.9818965021788644, 1.16249155809741, -1.4051400058570875], [0.3101681728204485, 0.12153013658888145, -0.43897697835671723, -1.2825532592694775, -1.12274575988345]], "g": [[-1.7412044878769712, 3.0316236384677615, 0.6903538157574648, 0.7758761212839169, 0.2718482025011871], [-0.32275583198855257, -1.1398239270578665, 0.3988650367554742, -0.557601236511834, -0.8325928781266291], [-0.7380157957294575, 0.025317132027782185, -2.051016896739168, 0.4876990567022998, -0.3930741221808925], [0.8386027304406037, 0.8044389280305503, -0.7006393225216129, 0.18136510815995138, -1.144373296801453], [-0.5940915150917001, -0.05932111763229747, 2.071840844672597, 0.5741914503573093, 0.35789641820111906]], "h": [[1.5428925796690511, -3.0073133223917647, -1.4232672328201332, 1.392707607255149, 1.152187347900987], [0.6723713403575845, -0.5460543472407412, -0.7226279273044223, -0.25312172516855563, 0.07718254798258768], [1.8116728162212714, -0.24101574840360834, -0.6773565296894888, -1.0653552467005967, 0.4481458167887076], [0.8783610389042159, 0.330407396686832, -0.6741273485463789, 0.1487761955998831, 0.09849799508454889], [1.0140128303840632, 0.637019050048513, -0.43558869155588315, 1.4081933875174781, -0.4600816610393586]], "i": [[-0.04458408430064959, 1.1090568520340311, -0.6601978117909674, 0.059228296856693105, -1.5495755329463319], [0.3308480727271761, -0.5286124279648716, -1.6847083568626193, 0.83721105892371, -1.289241989377208], [-1.507284893457435, -0.3540753195709096, 1.4716504788400724, 0.40979964960724485, -2.1710068431912353], [-0.8795914264508674, -1.5256111757930437, 1.7741918393597373, 1.9755447469937086, 1.0433619658330917], [0.01722596548519011, 0.285683661281449, 0.5257072694594392, -0.08249213077069936, -1.1263476767353635]], "j": [[0.2816386951607549, 0.017406471334104265, -0.35035036194992025, 0.11296865042844248, -0.8873549969255321], [0.05692897217433108, -1.1588394344854303, -0.2197230315662004, 0.7397421544288361, 0.10469694602333628], [-0.5004657271446676, -1.0737574220107085, -2.493155708279913, -0.9587873655327598, 0.16513335379775562], [0.2314121451322111, -0.4149925371022307, 0.5800345212577901, -0.4824379341449796, 0.043194663399171544], [-0.6658441930620012, 0.9742302099534799, -0.8094117000690773, -1.170888383049864, 0.934281429667819]], "k": [[0.13076035387496607, 1.8205460130838564, 1.1032931841854123, -1.604123596637688, -0.7152227012337258], [-0.06577276985603443, -0.42388022762817607, 0.45939941174717575, 0.21548940236148212, -0.9314059879152583], [-0.8434189151840341, 0.43515746498761004, 0.1588392758048256, 1.1416694300801296, 1.501462912725825], [-0.9763503910752315, -0.5464319604593344, -0.9396439646916974, 1.218774074845581, -0.24746681394816777], [-0.48560543977015347, -0.6853428725869536, -1.9720106563913555, -1.3898201130490329, 0.05918005251843634]], "l": [[0.31655477984950325, -0.6659843623145116, -1.4176804367064457, -0.20082278001889664, -0.1970798768543713], [0.9650915329721538, 0.07945585077124505, 0.8693037562040989, -0.6737070436173815, 1.4567649813868466], [0.2241882683203276, -1.629027800942022, -0.21859334013278153, -1.6444341057191278, 0.19175529424142512], [1.1195242385242048, 0.004020458408837934, 0.3267809649693633, 0.7704684952779792, 0.008649321838330544], [-0.17031546356449778, -0.4757778179886734, 0.4340992145458927, -0.3824737046965702, -0.29325265181001475]], "m": [[-1.4913989827973042, 0.08413971079177109, -0.1532070393459085, 0.30436161962280806, 0.10230835280821338], [-0.7174872144962375, 0.7953945682579135, -0.38705200785311633, 1.5427299791569191, 0.6738355726651404], [0.47965128162931975, 1.3676734403017363, -0.7680865130607362, -0.1168455601388615, -0.517364726005972], [-0.15945928397666484, 0.5794659600075909, 1.1832733101594597, -1.3689620088194046, -1.8640130305351104], [0.9115252917735918, 0.29001542030499633, -0.449392208493646, 0.6363890753611461, 0.7556952053518443]], "n": [[0.4441131331648581, 1.400798449802712, -0.673242004831132, 1.7745961105439432, 0.5580231844523866], [-0.42142552431542846, -2.079512431446776, 1.3947569403909719, 0.3407032401487885, -1.323048428117383], [-1.818656901266389, 2.2225391003878494, 0.42724721659784565, -0.3409642756135251, 1.3154312496187166], [0.5174341005173403, -0.42280514504083916, 0.9466942037405818, -0.2098375834259236, 0.5072392674860153], [0.7491463664248518, 1.4506124855227418, -0.9341140395056033, -1.0196545935914187, -0.06122582389195437]], "o": [[-0.6983661065617485, 0.2843364279826168, 1.9609606231281826, 0.008474335487435272, 1.1034218856445916], [-1.0888740785594413, 2.438950233814747, -1.4746676393368474, -0.9435860615685331, -1.8583188371277712], [-0.011536823839553761, -1.0259822059278092, -1.740875487743195, 1.0781768062275296, -0.9296166994276166], [0.2738668624845892, -0.394797145224432, 2.1100685140233257, 0.5416895803285245, -0.3214218020004031], [1.5027423211128044, 1.2415641251949832, 0.41534689945462505, 0.014829289224306205, 0.0063977046143676225]], "p": [[0.9489542737713224, 1.5074794972299228, 0.40449397742948073, -0.9214827467292023, 1.123520482971865], [-0.27704960410013796, -1.2538477026548869, -0.7309485909302698, -1.284310521583335, 0.032816337306618655], [-0.12646916709715023, -1.5492805811358838, -0.5558417222399185, -2.7364016236960764, -0.297974590543737], [-0.45957726546316907, -0.0757075502721385, 0.6602501991277732, 0.7190239530689271, -1.070122496674208], [0.7956993281345155, -1.3782658382600395, -0.8692010163025421, 1.8045990522242334, -0.08611524225808746]], "q": [[-1.6550272787019598, -0.6902826444420621, -1.5671073250359204, 1.1104649012505268, -0.2422566792704187], [-1.1056852986919852, -1.459060876328688, -0.35877548002763343, 0.8671251514294288, 0.8564449150934382], [1.9042235715602165, -2.4603789462119394, -0.5561995955292576, -0.029301859521029077, 0.7182120323448711], [0.38540628728312426, 2.713362757914735, -0.12441059432252169, 0.08033228946590773, -0.6173329400775722], [1.1075799032978024, 0.822973749062258, 1.4411788623949013, -0.48417965166699845, 1.887935702547095]], "r": [[-1.304061616539026, -1.7478628339603934, -0.030210946204096707, -0.15030457584072282, 0.8939885638630924], [-0.45694557639966826, 1.1262064406314523, 0.425361981209972, -2.1498524863693818, 0.461595119618275], [-1.4112576927755363, 2.0904546562361066, -0.153122957179056, -1.2653576499010888, 0.5804822559851055], [0.3584696590564556, 2.6728230298058318, -0.03719295819859617, -0.5370671302523533, -0.19881713416538133], [-0.019509217013318286, 0.7879307864314316, -0.6348735061646655, -0.46716193842049286, 0.045552437689708666]], "s": [[0.7921756554383356, -0.9601955724883521, -0.5287355913659387, 0.6102908965748767, -0.32813799483639683], [0.20736128356264621, -0.31966278437301704, -0.3988774140814566, 2.406888752788876, -1.1696487183615119], [-0.2466658230731483, 0.03777258911579179, -2.0827878015365813, 0.35726703660330356, 0.3169083011877205], [0.5769860572163682, -0.41649139239103244, -1.1322912013167283, 1.3599171784278024, 0.5984719067925368], [0.6961681636275016, 0.13184826790860996, 0.6278728529511325, -0.35764069213412525, -0.6587198455206431]], "t": [[0.06784685718613086, 2.4545213812986675, 0.5933315408038264, -1.2763086361767266, -1.5404181936268049], [-0.17293932771421744, -0.3676532133410279, 0.14392345820826352, -1.2566671908083147, -0.1721456820466419], [-0.4156935383868338, -1.452560589126332, 0.9059841839813768, 0.3942935099365055, -1.2545056974163897], [0.9259518834704136, 0.7524389446845656, 0.6026018732605211, 0.4113540054702245, -0.4127158625463689], [0.22784399590536, -0.42847288830043495, 0.5173828338131007, -2.0353138634439136, 1.5281056439442404]], "u": [[-0.8178173716785674, 0.6423618769978144, 1.5553299081697252, 0.6569932528614627, -0.7576389578544886], [-1.4937423205151494, -0.017161286624629377, -0.9782383675950149, -1.1096337419739786, 0.43319981149091835], [1.2959733672138818, 0.5107811410015819, 0.03576212516134908, -0.7299482840387552, 1.1158726006769297], [-1.5375524662428426, 1.5150080678532574, -0.9323142511763141, -0.2557976488609532, 0.20811367793534177], [-0.9481599642212687, 0.6121748295774574, 0.2519884881506666, -0.8296984594962927, 0.9417986763951428]], "v": [[-0.26574834236605044, 1.018191110773674, 1.4989757692042915, 0.9746543361718248, 0.03903154515240159], [1.1624618800612037, 0.030811685958791298, -2.254001082441073, 0.39634985012637747, -0.5459420483519448], [-0.12364598052024525, 0.3741504944599734, -0.6613546365223298, 2.3129273652631266, 0.6987632791339393], [0.6420106186489064, -0.7448724693407965, -0.8647704358146271, -0.31780112074885775, -1.0188788855886244], [0.009121893743437425, -0.9390991458528949, -1.6938700008673089, -0.5754930634085997, -0.4415239599036218]], "w": [[1.5785369652088708, 0.12035325189337603, -0.4944319869419585, -0.5001661902596967, -0.6046229508204006], [-0.3815778271510752, -0.6644175285261201, 1.3222102341403077, -0.4671230126298346, -1.5044540091080325], [-0.5285134165640142, 0.2515395164568091, -1.274556196614468, 2.4823186424042394, -1.3262944050769432], [-0.9917455876425139, -0.08921274919064921, -0.26698356115527583, 0.8116935904355482, -0.004761270074754456], [0.3245778069484943, 1.7573260941651234, 0.6821894551154554, -0.9486398174017185, -0.576095664369939]], "x": [[-0.7295244308038005, -1.2183173651094952, -0.4756873402198424, 1.043978536933534, 1.1498465616654987], [-0.5118941637452892, -0.7460856862177866, -0.3840069027240211, 1.0736673318154397, 0.2885882004789234], [0.8471268260575467, -0.5845867657456324, -0.491084272586639, 1.4000466012871127, 0.8469380129334979], [0.09080719602452696, 0.8933254016027299, 0.09403659276183561, 0.7386092046014859, 1.376063858328179], [-0.1320066647119384, -0.0960352675280832, -0.274571845208143, 1.3173695049138447, -1.3548584246696191]], "y": [[0.0015588401518043533, 0.18622872874015992, -1.1058101891790024, 1.1386111994848986, 0.12898667082575507], [1.5595695091881587, 1.1833332665394878, -1.7858747205575325, 0.9148990599645141, -1.0601024497078018], [2.3126345830025503, 0.505223426225401, 0.6691614588317649, -0.9270800660210177, 1.7568785703916163], [0.46757699198111136, 1.36239567606871, -0.7738547603732133, 1.0947694162880282, -1.6302665268722358], [0.15229291518933727, 0.6854848715189112, -1.8180111280561275, -0.877798007332271, 0.2719651440152809]], "z": [[0.21526247787406042, -1.999386760856564, -1.1716236117086882, -1.4128396213813512, 1.8647914013556577], [1.3863503332530334, 0.6888988122387892, -0.3217018795644408, 0.26158676895729793, -1.1863541285462733], [1.3948300105998146, -0.12927277223670952, 1.8330298615321021, 1.564181271872307, 1.6091888405086863], [-0.28899064120255447, -0.4457418043889732, 0.02808409775274634, -1.2813276876381936, -0.1273186450754116], [-0.7371791961636549, 1.388288418373382, -0.6219185290834452, -0.9216037364805783, -1.4642821977630276]], "A": [[1.321333975384818, 0.4800610795403032, 0.31160498352921184, 1.850542020254933, -0.7984783492648084], [0.5066324592566177, 1.2180608987942274, -0.5641159069259946, -1.6333021979286333, 1.242580122519923], [0.2503493723720254, -0.8167010359866267, 0.512666410720397, -2.362655150743114, -0.5325170308386722], [1.1182452816502273, 1.0769872142092596, 0.34695604353693343, -0.026287537513297744, 0.4452438811136062], [-0.2896058297054408, 0.4298627776240277, -2.5077353081662683, 0.30421454739893955, 0.2317482919916317]], "B": [[1.1172901074627661, -0.5853220714520572, 0.1147303099502603, 0.18666812386013476, -0.028015538437239976], [2.0514609432812763, -0.5734535750940992, 0.6704095508784439, -1.6186704950770967, 0.2809054859138656], [0.9141692542012066, 1.103048107508563, -0.15272756223518824, -0.9769456587998167, 0.30514276438906285], [-0.005596999227122746, 0.5867199471811693, -0.5392844309074111, -1.0715248101067243, -1.1396619070204568], [2.487896711572946, -3.611469532485549, -0.0798874870730536, -1.6088452087773728, 1.1515441471931265]], "C": [[-0.1098557296884982, -1.3883059083186589, -0.3505647389370586, 0.29174434020478307, -0.21857729768840328], [1.017088972482138, -0.42825750289266806, -1.1758074979623876, 1.3821576562037017, -0.32451653837524], [0.6684698112941523, 0.7700030740239956, -0.09673661067950025, -0.8076976649717335, 0.4389545058700558], [0.9687356082413846, 0.0587772309934608, 0.7761606633772842, 0.5402906476970978, -0.2763150599239044], [-0.5768090475208462, 0.5804378936502884, 0.6354945500203698, 0.22882119107496013, -0.7227189084107702]], "D": [[1.9740636124224602, 0.42097238389027297, 1.7413278124571705, -1.5559683813858203, 1.022730536573821], [-1.3578359085631448, 0.4707604593627175, 1.1279469172846053, -0.781954417984578, -1.4863446921132175], [1.0646650025302535, 1.32114496840331, -1.4381797534505263, -0.4336756451118335, 0.18085438993784425], [0.9943285893725966, 1.001069924033481, 1.4844491575155605, -0.4973603591714339, 1.84178833194704], [0.049301581312665765, 0.4049899764445012, 1.2449628781996978, 0.6773790214150112, -1.108075205081055]]}}