{"ini": [-0.36472429573601456, 0.2695511341632391, -0.22667013352845228, 1.579984775525523, 0.22146815105606038], "fin": [0.50712690483038, -0.05690237342547598, 0.6631373968826446, 0.1469205204058565, -1.1983525007827531], "trans": {"a": [[1.3889158580614838, 0.261347551795596, 1.1126382459546507, -1.4422127200718928, -0.2668700577039845], [2.1746413096371673, 0.022895773678234435, -0.5966805981120392, 0.6519583015342727, -0.8585769750692661], [0.011803153984814506, 1.7187735998002376, 0.10364790322224277, 1.0302922732815127, 1.1927771529747053], [-0.6293870367411389, 1.4020691486594568, 1.2449607017013322, -0.41309131489737194, -1.2784208955369079], [0.4888743019277425, -0.46575648647758555, 0.003226832906310374, -1.933724961354035, 0.45554728834349545]], "b": [[-0.447611812279332, -1.5041520031355244, -1.521761633161682, 0.3484262095237395, 0.7763403308174917], [0.8998280630151947, 0.12056568112300857, 0.3957860467094309, 0.08676596766950902, -0.9246557578289959], [-0.20737027662308682, 0.2511271485381735, 0.10615697817486312, 1.2722631856838973, 0.19371539303696683], [0.3973409805681825, -0.16789911976625232, -0.15744607724485662, -0.39843997564434985, -0.18012928201019146], [0.11075621549518855, -0.6039853192156144, -0.695980797641428, 0.5198960216624683, 0.8226286892956987]], "c": [[-1.6777052373730974, -0.9920051967652187, -0.4797572140478398, 0.6606265647309756, 0.22206311125599915], [-0.0226213075872203, -0.18656460410859219, 0.4132867280033744, 0.6167776109021833, -0.5124108638385992], [-0.5175375152769238, 0.14780120207840713, -0.14573106927204774, -0.13538761336021157, 1.208911586635649], [-0.13910715874660204, 1.225949177943446, 0.7840657187166407, 1.7429664266036275, 0.6106358808396232], [-0.3408976757284071, -0.7220911602863502, -0.7803039873437048, -0.7758784995679964, 0.05148725046862559]], "d": [[1.3796306024335254, 1.00614067133374, -0.1913831808021244, -0.48581150290302516, -1.7756451412561944], [-1.1306319934086941, 0.6949455426254547, -0.316981932865682, 0.7199573729693955, -0.9629632056752823], [0.31970303761126195, -1.6657908876950414, 1.5430660264629046, -0.6668366124661169, 0.062478682675999105], [0.24451893426580712, 1.2355005266478807, 0.4195089208950446, -1.0855260347554267, 0.2462872764172659], [0.15295985443072324, 0.5475331311825155, 1.1753161885175742, -1.021536149534636, -1.6084133969332546]], "e": [[-0.15310169964615006, 0.19779649522676818, -0.414490918213053, 0.6744405186569186, 0.27962389695968926], [1.1612393178067424, -0.9020443666764111, -1.5085364473145928, 0.5396146600433434, 1.640165794357251], [0.6430065173723166, -0.8057668845159957, -0.06944014736902343, 0.8445530474009383, -0.26232842292529907], [-2.6700133817809464, 0.07783392771703448, 0.9838262331983084, 0.6322935881741581, -0.06919517130008634], [-1.7590471408058488, 1.4682223085669812, 0.24698891382797789, 1.5438520259292807, 0.3225499993142589]], "f": [[1.0796037337868516, -0.14890476376022135, -0.14291010571165286, -0.6574703343118807, -0.8437109363981631], [-0.26886484648975906, 1.366658861441479, -1.3128300991828146, 0.9083439224698177, -0.1993413486535165], [0.5176751768045291, -0.31760817955568127, 0.7730600996517569, 0.8509539747926614, 0.7006968438105993], [-0.9752286305338747, 0.27364464589250326, -2.7384449094102137, 0.30585327285563096, -0.08890701304559732], [-0.40109218369748195, -0.36205939107707386, -0.134370531119116, -0.7499509667110005, 1.3630842486128842]], "g": [[0.29126091852435054, 1.267461537448261, 0.0851151152109222, 1.141939632346396, 1.635255428345342], [-0.3431475450756784, 0.7614540976011395, 1.5380605290217946, 0.19730503679243278, 1.2217224000534672], [-1.3115816724760778, -0.697516541408753, -0.49060600272827737, 0.1257851458771291, -0.07472414662492911], [-0.3077775929000298, -0.3107574895705623, -0.019761453384825857, 0.9219961291820064, 1.0580598417321392], [0.9479144512886719, -0.5599311014547306, -1.2351832124489965, -0.43269154209760063, 0.49820866766235344]], "h": [[-0.365630368293849, -0.2753208518286184, -0.32790117798217006, 0.0005564640640003447, 0.8637290897238169], [-0.6634421966760621, -0.2985280805255716, -0.047756078585366096, 0.5552860992623841, -1.022127905728628], [-0.8675721119823566, 1.0918375512736116, -0.5511964471458667, 0.8210405673667772, -0.3565656306976741], [-1.3285466995586337, -0.23604180456080062, -0.5728525794279598, -2.3441601744365785, 1.9454464197914136], [1.4768816208607503, 0.025521049970452365, 0.498712783273116, -0.37900687676940087, 1.5338523799322756]], "i": [[-0.48890306658019433, -0.8604991607337923, 0.5729987651569004, -0.17676277426239567, 0.4527053693773714], [-0.4300862205846143, 1.098104909034734, -1.0286627122038727, 0.6987496208345613, -0.3906619495132636], [1.291431707849636, 0.8354688581785722, 0.9874527428931363, 0.03538127435651539, 0.7282847628104627], [-2.5921223218165568, -0.2509212806902496, -0.21662987545215934, -1.277170914556208, 0.4669389077021279], [-1.4924771353926194, -0.9836266631302677, -0.8921117976468397, -0.7893926522823008, -1.1579687401257115]], "j": [[-0.844213978392614, -1.8183591619420933, 2.2010921686497062, -0.6479930944442678, 3.544322897052388], [0.7341935740635026, -0.345573956954595, 0.3556160350187077, 0.9775752876097095, -1.1116083202666347], [1.1961618457487584, -0.914506381442118, -1.2481854532418066, -0.6029306080571202, 0.6674323143003739], [-0.8074957015722959, 0.13629037389991322, 0.16337655193484527, -0.6808323117768617, -0.0703565967931205], [-0.29972210237188845, 0.45571254909289816, -0.8064126625188215, 0.15242827930876773, -0.7149329627517881]], "k": [[-0.6584359753279846, 1.3132746932636532, -0.37345096057212224, 1.5150785248747933, 0.7325882396938803], [0.628635917491584, -0.2697651820662138, -0.38839213185923527, 0.982386095093347, 0.32208030859925596], [-1.9147364467482022, 0.656069588103283, -1.9357239579077128, 0.5687117283363904, 0.34100094802071296], [-0.17425705913859096, -1.6624088183576529, 0.13091939984935003, 0.5809302114661729, 0.0975156137596807], [-0.5737112053976752, -1.646040368690274, 1.2272658170401045, 1.458916250959983, 0.5733425234586441]], "l": [[0.8562155362773987, -0.06433364236000298, -0.9182492687032984, -0.14746799117410392, -0.3678648117375671], [-0.6543406781557163, -0.7548969694147015, 0.042955966833140055, -1.6115536456834567, 0.03823066579205564], [-0.6426369656509081, 0.33188350741754524, -0.6106081486067377, 1.0584197450640045, -0.557104532505378], [-0.5829484652176004, 2.6343373623892803, 0.527100104960286, -0.6376083038421796, 0.5766008144888745], [-0.43651343112527996, 0.9620950609855019, 0.3682207959613414, 0.9885356357449788, -0.5031751458594327]], "m": [[-1.4284034411678763, 0.6353365884102627, -0.8443392493388416, -0.6245227992458181, 2.9747624417247143], [-0.6256096149639592, -0.11869099151856467, 0.7025548892609785, 0.147373769449535, 0.36300975951627446], [-0.37163529603731926, 0.38884572673755835, -0.7831108638613838, -0.41621555932409987, -2.545678070498825], [-0.9939287111180157, 0.42952300215912526, -0.09555293815111025, 0.6236286430099843, 0.6352998511865249], [-0.44178285484542057, -0.9824143266234018, -1.6170468898839028, -2.104222168452482, -0.6726679488244447]], "n": [[-0.48853945105543745, -0.8707402841907861, -1.925955808680893, -0.31847833107811846, 1.0632597345305912], [-0.6361402970503272, -0.19967903150462296, 0.4730292112355878, -1.188403867106394, -0.10471802920735498], [0.24260984814785772, -1.3173191952998986, 1.5244489765657672, -0.31967350747312145, 0.11008180910486379], [0.30911836149593086, -2.2677139883062285, 2.0249077453009954, 0.055428553293911394, -0.7541063891181188], [0.2904746376044824, 1.7380509809206948, -0.463765830736737, 0.6825502711075369, -0.19057457254720686]], "o": [[-0.32659599283887336, -0.010871277501990977, -1.5738528446818685, 0.11531549394350013, -0.36903617183568294], [1.2723543074943375, -2.378358801034101, 1.022937764875465, 0.11403074704403937, 0.9572518338797583], [0.38460451290073844, -0.5691930246357274, -0.4311670458321198, 0.5720775332252374, -0.5721348878276482], [-0.07032329462845145, 1.2918505490804522, -0.5920604568850406, -1.182067303624775, -0.11467559946982368], [0.5166624582597088, 0.8069518347373897, 0.8729188308043011, -0.35165950628832826, -0.6013093465598528]], "p": [[-1.1997817660993948, -0.006197500669462996, 0.940697752593332, 0.48640137879828776, -0.29363093679756996], [0.7114687987888362, 1.5083181492217608, 0.32230423601519625, 0.42058425795048565, -1.111278180351307], [1.2161212074677943, 0.7732910187482708, 0.6078507947136803, -0.31941438442730663, 0.10623521814966602], [-1.0885735167243655, -0.4166222429039422, 1.0053083435355343, 0.9056908227197835, -1.3093307825812395], [-1.5046993119848275, 0.05947139242504778, 0.7086320570338739, 0.6310072432034423, -0.11297988465134517]], "q": [[-1.993105911720332, -1.4277365287969572, 2.332172373104078, -0.32729190294331983, 0.7469713758142742], [-0.6943752410865291, -0.22724248802556077, -0.03690077898996138, 0.7802978946786686, -1.4680887751274947], [-0.8114258228629211, 0.8842362201626586, -0.25783157911229626, 0.4205845736497834, 0.6132116014517027], [1.0832190365890988, -0.4025954478066587, -0.9578148024611123, -1.0750241221953893, -1.828242495649279], [-1.568119051001778, 0.8899955144769398, 0.31050836921011116, -0.7536370795156478, -1.7701987664024863]], "r": [[-0.3298891594230845, -0.5933327913833242, -0.9366976136334274, 0.6209573341526804, -0.2572871664311037], [0.4954478168760395, 0.7672097554290429, 0.24527064154427652, 0.7499747772509532, 0.7167912900240332], [0.2679815935974028, -1.6044319409178331, 0.9969429494589251, 1.0685372054201592, 0.24082914102846784], [0.3894101726303171, -0.6919014319642113, -0.07391934014761703, 0.09252994951594908, -0.9711886304295632], [-0.6744899903119446, -0.3840838662136659, 0.8637213678702662, -0.05748145949678699, -1.361973578621063]], "s": [[-0.8712680293530307, -0.8095443622467577, -0.9054270261664179, -0.4153060507847984, 0.942788953701035], [0.20726035162870038, -1.7580842511786101, 0.6820105959495313, 0.7272090915575011, -0.3198702527222983], [1.119217543830147, -0.7743297100031564, 0.4915991435112149, 0.22724207543469693, 0.6483792863821635], [1.2310921659260357, -0.4941249242398637, -1.5028329064835282, -1.2569682919636467, -0.3839465319963976], [0.43109520138809176, 1.858595303229846, 1.5036664232099475, 2.01091157341656, 0.22693196192844856]], "t": [[-0.49609574138808105, -0.3313477582782853, 2.2613557795197807, -1.2886905158497421, -1.6243280055582103], [0.439203595602784, 0.8550511346161208, 1.2235378679371802, -1.2387726451245775, 0.7748475502786214], [0.2190012222490894, 1.052332188009449, -0.18388777643785295, -1.3820756590242613, -1.6646130275580944], [-0.8151014850626367, 1.3528601724526519, 1.190009544037802, 1.7108802090517512, -0.7860062114468308], [0.20144542240982238, 2.265615905119251, 0.5938625201850529, -0.21177290648938468, -0.4166941399695251]], "u": [[0.3319853578090866, 0.6053156777378271, -0.6017509389309862, 1.1359610498144699, -1.3843523265784234], [-2.0676103681452442, 1.0446545264247766, 1.163462353877664, 1.5620778857010413, -1.4331981160658136], [-0.6109282010056135, -0.47423291704569476, -0.30511693061217354, -0.8343090849496494, 0.629712967616477], [0.5690515378841183, -0.6760788053963757, -0.9993631665783747, 1.3004700288080857, -0.6456613751806289], [-0.7302702894447554, -0.18484130263514081, -0.30190257511566193, 1.0940147133112286, -0.018269204995783776]], "v": [[0.15225699187342454, -0.2412061400219072, -0.6969895580792721, 1.3076011851798068, -0.6652900665575426], [0.46935130708685274, -0.4450911753064131, -0.37518033737273654, -0.16655115594507774, -0.7886037552629194], [0.28442798727648205, -0.3172571445871259, -0.4003735217927385, 2.1862263964982356, -0.6199953463483188], [-1.4770629870103869, -0.9274748783914674, -0.5416975608597671, 0.22801943018044998, 0.9306057286741067], [-0.40880539593897913, 0.3975233941581304, -0.9716800346086492, -1.6723029465513055, -0.5472759941268125]], "w": [[0.8075409492502564, -0.5990397039784725, 0.806044263598628, 0.03225117315589764, -0.3295535198824312], [0.014706323916190532, 0.21758965525736262, 1.1527263263677097, -1.37369780878176, -0.8055948611757876], [-0.21077106310017854, 1.2113995556941255, -0.899126510331905, 0.6219968810775294, 0.02252902608999867], [-0.6167786851625516, 1.0737682027694226, -0.7851286349777808, -0.2393715387062443, -1.8817787725284902], [-1.8627079167480727, 2.0284067125737293, 1.1660198124568253, -0.32068101630933266, -0.6433630912851582]], "x": [[2.071232007549009, 2.2013741099416606, -0.5364472059152862, 0.9478207687436424, -0.550015741768402], [-0.24628275568671565, 1.4816527290323676, 0.7057979743813203, -0.0371010773592528, -1.5242840572147425], [-0.49068801830425396, -0.6940782123807652, 0.6441031249231302, -0.5611481959565353, -0.9949971066913642], [1.2759417140655418, 0.16445432998659315, -0.6829494030089748, 0.0993934867249367, 1.844469327708594], [-0.8622352851547312, -0.26123173349601747, -2.1702764197820557, -0.18937908936906622, -1.4370099850192237]], "y": [[1.9086957948722516, -0.3291581502085256, -1.4166829282921014, 0.8431982693836874, 0.040130419154804496], [-0.556839682967884, -1.9499020891753518, 0.5847335304383338, 0.7726035999332683, 0.9575607671967475], [-0.4262782807656352, -0.1349764760129823, -0.3672689472400652, 2.163879082049191, 0.1700698247622789], [0.5984050210164238, -1.7743636703952448, 0.14211506595884285, -1.2292440968779963, -0.4492097344977992], [-0.37913965307456704, 0.33064705630598346, -0.003986921936972385, -0.14767619503411156, -0.8207391010043699]]}}