{"ini": [0.5789617472641885, 0.9845741143738632, 1.2815248796693215, 0.9888267551645109, 0.352935621624756], "fin": [0.1319239976601665, 0.018710380125895952, -1.9568580091502166, -0.8205666317996174, 0.17259071505396642], "trans": {"a": [[0.31556698816847817, 0.20454325971611867, 0.9626185614723775, 0.04073881098869083, -0.4260489518846773], [-0.05519143518684716, 1.0190207627873682, 0.9715663654052145, -0.1675242753236268, 1.2355624202026099], [-0.7636683783147745, 0.40247935173057736, -1.3166083160395001, 1.0015306831665867, 0.145583120013016], [-0.08724996285272188, -0.3103587713763373, 2.19438419863429, 1.849819688531719, 0.6858887261716817], [-0.6562037486081194, -0.07569438491353388, 0.6337876871090709, -1.328150018269934, 1.609159716003005]], "b": [[0.22274996104053704, -0.40496011553451244, 0.7485701655595352, -0.21550305425574454, -0.4980723439741414], [-0.6496887141630998, -0.2154292339428999, -0.5986952484356929, -1.0579669417607322, 0.0015342783997191753], [0.29542495864019, -0.16920498885769436, 0.07588446879284512, 0.8466328369911837, 0.5897387562282849], [1.4812366299690674, -1.8642416280988867, 0.053421027488919415, -1.0879279278114267, 0.3310706376643688], [-1.4962169103238436, 0.32608496108289664, 0.4053780312589251, 0.7193068378221782, -1.4163751514105516]], "c": [[-1.3034698879626951, 0.6479483837500185, -3.1836824385034075, 0.357093989399407, -0.2263284264358564], [0.7238280258293563, -0.4223672095651565, 2.2646812259959272, 0.12059357343076169, 0.6068726573802574], [-0.031152373883070388, -0.6000071849034931, 0.27171643874167783, -0.6451449330026356, 0.7006870518232883], [-0.9067547261936421, -1.3344187416664262, 0.9093515050616207, 0.048199550016030664, -0.13768779979097331], [0.21351096723665197, -0.5971136038908389, -0.5297844035607404, 0.36710071469700284, 0.26038524170056004]], "d": [[1.0008392738371261, 0.24909228095970537, 0.7260635124259898, 0.47176938289934367, 1.0307791767347232], [-0.8854056222438134, 0.8036016394794993, -0.33343514763542337, -0.18406388082055586, -0.07543496772432218], [1.7738723834423349, 0.7714313793012014, 0.5552736255999116, -0.08098282057825117, -1.1552070468390117], [-0.01857804426680874, 0.5375220710387744, -1.3246684357257679, 0.13775707534074122, -0.45744313494918076], [-0.000596375910492069, -0.8001749860692556, -0.47004285175451266, 0.7035634145837234, -0.5802777038982113]], "e": [[-1.419727284863821, 1.4948221264376125, 1.0435615263327482, 0.7801033666105353, -0.25649122877517516], [0.1493363010341226, -0.2394647515414976, 0.792962707457456, -0.16940048670280294, -0.088350349897856], [-0.7833342335017661, 0.2547645782268535, -0.16867920378522946, -0.5465220372570969, 0.43550210966128794], [0.4769506925753045, 0.4057802704036907, -0.3017489156337245, 0.23434209114294963, -0.05656174591376633], [-2.388474860637694, 2.3368760394076835, 0.1584848658483185, -0.6524313190817145, -0.37083859822446946]], "f": [[-0.7186603593513559, -0.35134316598522813, -0.11428284904648427, 0.9176094592326769, -0.6963675806674617], [0.9966622963311691, 0.9860986724406982, 0.05355512186523394, 1.1123376645585856, -0.07604014339873812], [-2.6691533034783137, -1.8053695886965166, 1.1548808448462233, 0.9827358479799411, 2.956860338060611], [0.7948186519936692, 1.378350673089454, 0.5837777583159888, -0.721003843497474, 0.6825670874274697], [-0.762627554575382, -0.23313730793581658, -1.305441250816325, -1.04948503398833, 0.23861021501394183]], "g": [[0.29336056452780707, -1.5784674508358836, -0.8871572771254633, 2.7557411580810616, 0.9822936449373815], [-2.4798722279116534, 0.19379282630378447, 1.137339448832987, 0.1458583270055007, 0.4555186785170999], [-0.17176123338378463, 1.9312527087015663, -0.3179330276314538, -0.1164175217067561, 1.4011988621276608], [0.7899112551853714, 0.0830394117779712, 0.493694482289387, -1.950728004838602, -0.36802357931599367], [1.2930730871920495, 0.45560473093154785, 0.29156846069357506, 0.6033211475713678, 0.020875343960535524]], "h": [[0.8783643196169206, 0.6740310691237137, 0.21396335313442977, 1.4191324997308272, -0.5505365881052394], [-0.308635233153526, -0.018673775801000273, 0.09510533226675988, -1.4882586557616961, -0.5421394621983531], [-0.9430842343512066, -0.03259365222575266, 1.6193470792397595, -0.21603011127864954, -0.23683586019853037], [-1.0251906988303103, -0.16001470737684467, 0.533621803798804, 1.263600445981516, 0.21484356150554437], [0.07289748394434656, -0.8401619743230262, -1.4008453707862305, -0.7034670005279318, -0.18627607449079106]], "i": [[-1.2925088526371131, -1.3268246896841673, 1.0414899012668442, 0.33473100261541006, -0.6067978860536418], [0.6582037729018136, -0.9509406797947355, 2.130821078169795, 0.6106909977371976, -0.32393422450334247], [2.433468902814333, -0.4255773237429169, -0.22780774705606913, 1.3899817726678612, -1.3247007139167097], [1.0070360851618108, -1.4879187808242305, -0.9942600748348671, -0.37844781136789685, -0.6594282004528886], [-0.2477451587478612, -1.5197422069463125, 0.2978124282282251, 1.8440511947522016, -0.35421711299190034]], "j": [[-1.3185777067981104, -0.598995009055485, -0.1856321814916038, -0.7013333927687688, -0.8730299864715736], [1.2269885906920883, 1.9941863105223585, 1.1926319242572756, -1.4622551320141217, 0.3087259228152321], [0.08657376542968001, -0.8143554191659667, 0.7994150361041953, -0.3222528815341717, 0.8750646646882364], [-0.2745273326888266, -1.2964604691109314, -0.9619494582217012, 0.9795703957819691, 0.4113234875807293], [0.2809074575372545, -0.8086469135703062, 0.0383128320893058, -1.1922115662671433, -0.3915751582282515]], "k": [[0.5249238488969443, -1.2207100444234726, -0.2290572515761461, 0.7101464143460516, 1.536595437141424], [0.1482126770927671, 2.370047472856431, 0.8011961189304536, -2.29788121180946, 0.07072468323661794], [0.533895722039476, -0.8873923524857948, -0.3492217161012043, -0.48543515300835277, 1.0982083148681459], [1.973559696514242, -0.7154895094419107, 1.9223749161979662, 0.1432698730460823, 0.3201265493229259], [-1.9411048298577953, 1.267540399302004, -0.6823112997937755, -1.1881033599460962, 0.37038950642316953]], "l": [[0.7782255833272798, 0.09740781163272536, 0.6057083736799725, -0.2945393952631369, -0.27916562826695135], [0.9537012116596343, -0.033180954829316336, -0.7384547905099863, 0.8821168824133705, -0.13745134662006073], [1.2370626007229728, -1.173526434596289, 1.9285079356592316, 2.2847223855180485, -1.3356048558039828], [-0.12025901585239748, 1.513079212478666, 0.7188108875372511, 0.1562879560851213, -1.449400660020923], [-1.6432498699125555, -0.2746236416612458, 0.41687506140201486, -0.75979571654014, -0.6340749950449771]], "m": [[0.07317062569833113, -0.2717712391002942, 0.8105077784710297, 0.6716750646287462, -0.5687704528463493], [1.9507099890928505, 2.9007631473655664, -1.2166846949040317, -0.08679462890462575, 0.4604467938232816], [-1.196206020886634, 0.886226958977956, -0.4265829186514633, -1.3675700438050074, 0.38205138232124025], [0.027136340910113476, 0.6910390326377036, -0.7761925806278738, -0.9107106081799738, 1.154674417632135], [0.3289420011948139, -0.17479683215896, -0.5863274907307716, -0.7773596794953359, -1.2946431304952524]], "n": [[0.34382568197155955, 1.7732203584082928, -0.9899907606551613, -0.25608277295649373, 1.4853222298494433], [-0.473646352869103, -0.506686040439082, 1.8017958906663678, -0.33509921897655137, -1.1563395324854104], [-0.12884861176597878, -2.3740923778162792, -0.9417590882734705, -0.007300766858400691, -1.1824336071629087], [1.8603545289336165, 0.6417522726277733, 1.8879530024510207, 0.7429327707992334, -0.6970562559144775], [0.11593110961900986, 0.031048219081124234, -0.1256910018817059, 0.710177420967954, 1.0462622035669542]], "o": [[-1.0284990469234367, -0.6296219924567928, -0.23766669912853633, 0.2572910396452265, 2.162951675833828], [-0.7701927108551126, -0.4193229528674133, 0.5603678232057031, 0.9010801708726831, -2.2059308318760578], [0.4798824724667071, 0.7765624695722463, -0.7081419417831738, -0.7360534073243785, 1.0578754627938673], [-0.5293601417447811, 1.2757516561882487, 1.5251364001607142, 0.6734337662598708, -0.6330795426849405], [-0.24275050936269899, -1.183435406238928, 0.6828815438613658, -0.23251963913465817, 1.0146462525142859]], "p": [[0.21942725282067246, 0.40399944442633834, -0.2733868760626887, 0.4313885865221648, 0.1099233341787424], [0.37341945334547133, -0.7048911666109576, -0.01134999222288661, 1.215312587518289, 1.908968104745979], [-1.6881563222281142, 1.0130066481556494, -0.745738180165725, 1.1259565757514411, -1.738946342338085], [0.3812382923353629, 0.9428854863658078, 1.0176240772588587, -0.06145349335556887, -0.12002340976687921], [-2.050716922312214, -0.49676692292532315, 2.031238585912892, -1.697647533853209, 1.0799570029134828]], "q": [[-0.37422226939283576, -0.7530641142016558, 1.0838167933531024, 0.08695462549556696, -0.20661941123447927], [0.9415163808272597, -0.475604559220444, -0.029563731250913668, -0.7695010265746384, -1.1454590580086754], [0.8024624961174674, 0.7804651323532457, -0.29814253662500284, 2.507099141199953, 0.20190890976194575], [-0.1882313820507683, 0.32019319984051386, -0.17066357689824085, -0.23800410735094893, -1.1980782341099607], [0.5900763052220815, -0.6516243156549357, 0.21232983683121268, -1.3651282241685287, 1.35003523600639]], "r": [[-1.049831979973532, -1.091064370188222, 0.3488858448747405, 0.4829979506020115, 1.3344333670569282], [-0.1570829708687501, 1.2602196286743288, 0.28535598954787256, 0.35897655619973595, -0.5591215735208779], [-0.27765719058822225, 0.5123152195648563, -0.03070260705642289, 0.33792719226967427, 0.05336315770869364], [0.5314652381431415, -0.06929488086792018, -0.28727299251511584, -0.31076560915286044, -0.37389270523352347], [1.6411176768342683, -0.282692479635997, 0.8819948346329035, -0.415875397239727, 2.2837322295653224]], "s": [[-0.08032082709368656, 0.08516675776504583, 0.3962317142672938, 0.3777611357482751, 0.36556562134347015], [-0.461100437384145, -0.7701919181960193, -0.8646761731375512, -0.7630877531073064, -0.4109753172274405], [-1.599534410624179, -1.0478201542538275, 0.9275394931426301, 1.4617661431465572, -0.8630437786955278], [2.0345044124663096, 1.1239466121806412, -0.9228963950814006, 1.323131832257441, -0.521123878183518], [0.6752167841227998, 0.13861948172539734, -1.15515902167209, 0.30491959005683034, -1.193771222844732]], "t": [[1.8374207424670022, -1.8237269927423008, -1.1074003262293703, 1.1698285186149622, 0.07548902957961327], [-0.8580845119491664, 0.2878214483515727, 1.342105238772931, 0.41292422158567965, -0.012697567557488668], [1.7468782084545804, -0.6316315145068101, 0.7596574558193592, -0.3846484448940231, 0.9112283275953011], [-1.2116063306039824, -0.24035434604710748, 0.5316320888773302, 1.07376119046087, -0.9786721014201814], [0.10411780077213932, 0.4740645614413399, 0.6813043068798346, 0.9517395748123431, -0.3990272805878463]], "u": [[0.4957401648022409, 0.1981062671359902, 2.3238275192693703, 1.3584861909296624, 1.316213746852197], [1.1356932086200342, 0.6548838262650002, -0.39382083295737574, 1.3354003332330493, -2.57309369882363], [0.7907976779627541, -1.2498371851497836, 0.4347653993421271, 0.5356312738484954, -1.812698343055974], [0.16701902913825487, 1.3499380214331813, -0.8581631935275332, -0.6688592105777252, 0.14658378153656013], [2.0359301891316863, -0.6629861607673639, 0.4528211803000706, -0.4879052857166407, 0.6539498618182018]], "v": [[0.031384013391102625, -2.1507672808113463, -0.04445360016828199, -0.09926703207666503, -0.3156804240434728], [-0.5898001639520999, -0.4952020826475516, 1.4599755820123912, -0.044986109963023026, -0.22480776803517108], [-1.0813584236968585, -0.9506621309688839, 0.16877758994126002, -0.11129659006532275, 0.13741382517147085], [-1.024966853065666, 0.7777002462183578, 0.05720177884148161, 0.06734888191844483, -1.2337361882598155], [0.7871959948539419, -2.0967614869376265, 0.6105768174552455, -0.022003352389176403, -0.6379575414090962]], "w": [[-0.21358622055040977, 0.4773489489717692, 0.8723918184144595, 1.8865866380212337, -0.5413696590654141], [-1.6315219993915129, -0.6866246924890158, -0.14532453908301504, 0.38695239735918463, 1.2637134942251071], [-0.7626279880062902, 0.01709960284112954, -0.03751211298916152, -0.792757022062581, 0.2873171990711794], [-0.45325561942117315, -0.22468826435785144, -1.5872640823875361, -0.4051843062319285, -1.0096154430746958], [0.35634136223888335, -0.32286410039860763, 2.4660128770326373, 0.7146114680622475, -0.6017487783210609]], "x": [[-1.2170757886204318, -1.02079176082496, 0.9393397997972812, -0.3202652852529847, 0.30709769855902963], [-1.7942630688171066, 0.9758253356203783, -1.0523276524600433, -1.4362665809821662, -0.29019178325556966], [-1.3415167392368277, -0.5383498396736883, 0.21076883642774588, 0.19085928601562574, -0.307087337622982], [-0.6135912445539995, -0.6992478512022717, -0.3688292740799822, 0.6052953238691335, 1.5846494638161566], [0.6475519361287521, -1.4995645279607936, -0.5190667007420691, -0.38948144048056815, 0.8294659203032647]], "y": [[0.6981457224177933, 0.3378807665369863, -1.4466268107106564, -1.8188688467520329, -0.7510640018460641], [0.44868179019278814, -0.17404982235152397, 0.4428526964268703, -1.1426232633832654, -1.2104719783734508], [-0.10794307605966354, 1.3423530560477603, 0.6650581847604676, -1.1304776746255767, 0.631107155948349], [0.7596424907157416, -1.0096409529927357, -0.12195194132883505, -0.5437472541705992, -0.11325989676917839], [0.08351598659048207, 0.3432161680236789, 0.2650294153477485, 0.11882762449053921, 0.5115833264326023]], "z": [[1.32522053633843, -0.21303170935212168, -0.29157527788891313, 0.871574669510539, -0.7820745049095783], [0.13074299441048068, 0.46207200052455566, 0.07654191385429242, 1.261972067331136, 0.8360966014644909], [-1.4732299701394111, -1.6266408071902416, 0.7427817385719295, 0.23077008188304707, 0.5435866743650415], [-0.4974957595807598, -0.10376318374872359, -0.36275114219748367, 0.31758546454074893, 0.30903873292414646], [-1.7286558432773949, 0.9800991455190942, -0.36180566537888037, -0.6504067136228234, -1.3550043803803837]], "A": [[0.5193155673880887, 0.03070462137667673, -0.05258455483556811, -0.7760165579666256, -0.1974174271633697], [0.20311144539128342, 0.29193843290059335, -0.5544095028837674, 0.05647568740789424, 0.39383608523552577], [0.9905639338358386, 0.8882013858817446, 0.22753811033770194, 0.2874250116816887, 1.022094977274863], [0.3626022372513269, 0.32685945793362486, 0.12225388142162824, 0.6194501508112441, 1.4803666648366063], [2.2490157887286624, -0.4552704130490608, 0.00030692934063921405, 0.6590853948972758, -0.15235444764024067]], "B": [[0.017309074651384856, -0.25416758108802245, -0.11267013766831055, 0.5276616367367728, -0.2504654401241943], [0.6180468594703435, -0.23951430011522143, 0.2380244745185795, -0.17508319591651958, -1.1577068116745615], [0.8626773291665807, -0.16295213135686404, 0.5877660211448799, 2.1093831640815197, 0.21373287519491052], [-1.123534826754112, 0.8719417822209354, 1.1149360872923653, 0.6300670428592874, 0.7529704272276914], [0.3023193009464367, 0.45599546243704514, -0.7562930867917321, 0.41907162099922785, 1.9962929588131668]], "C": [[-1.842049168243953, -0.4755187234734219, 0.9924583586677604, -0.16798348974140762, 1.0051009436788123], [1.1353319546670517, -0.46799620153507576, 2.3557407503215573, 0.28526839228170575, 0.7865807777076171], [-1.6634672839707587, -1.495908883766134, -1.1377484197347332, -0.2532593159267475, 0.3279017360858068], [0.4105065066569482, 1.4687914401494842, -0.5409743158223997, -1.2101881095198759, 1.2775334118619195], [0.12100924495640811, -0.7801724436866663, -1.5129816551205755, 0.5566920124122312, -0.7755241741118765]], "D": [[0.5586711513889216, -0.3158518664862176, -2.0959224896358952, 0.15713129520266983, 0.8222277795956938], [0.03299618963293365, 1.2634117864601302, -1.1976188292453092, 0.08903190607234088, -0.06323237696464817], [0.602626575311035, -1.3739711977187665, -0.5099042004954324, -0.406130019049469, 0.40862697567556266], [0.0772703711915745, 0.6775567116889111, 2.0400119482756893, -0.5568530831356975, -0.6527357669506227], [0.0870233283933309, -0.9312338042787637, 0.053937270193079395, 1.4466965193236543, 0.6011299434847915]]}}