{"ini": [-0.656394269412235, 0.790844591578093, 0.2558268928969987, 0.6915155096818725, -0.4223112897832686], "fin": [-0.7018262813976377, -0.5273077163430322, -0.43229982594249283, -1.4261512399277942, -1.1518668998251387], "trans": {"a": [[2.014536494622538, 1.0836106096621978, 0.40260776945093396, -0.8560292906199736, 1.2576939006800698], [0.6080592067860577, 1.5384798330343346, 0.3811699884594978, -1.6187983822687826, -0.3462081571498932], [0.34570681672256054, 0.9066839364178706, 0.7757026718290384, 0.33875318042957103, 1.6816957864959445], [-0.6294595942296879, 0.7514878911342192, 1.0075631812131058, 1.8946541154522916, -0.12105674444828457], [-0.7107954974440043, -0.6196869206193103, 0.16000638691907898, 0.23392203748116483, -1.2522403423353567]], "b": [[1.4761575522230677, 0.4265201132021029, -0.8738642346396873, -1.520927372133613, -0.04090586992861079], [0.32131069486750147, 1.5558124286538684, -0.03430960626511212, -0.4346193885428973, 0.05070241046303201], [-0.7258478747472724, 0.7640137990894867, 0.6754585256818993, -0.8582139603900072, 0.8692811668090583], [-2.3547072501318036, -0.015068257697878937, -0.789785549903184, -0.8871349599934268, 1.1869079747131368], [-0.033802114369123726, -0.9368929409776204, -0.4821996527755041, -0.572905489193549, 1.609539196964948]], "c": [[0.6985115463908785, -0.43984523500241907, -0.2618105312832851, -0.704020361128881, -0.48252197443001704], [-0.7429558711470822, 0.7363310104650437, -1.0453383928559143, 1.1348385861932337, -0.5881864046092629], [0.7443859650791315, -0.43614307704191163, 0.6346750660136786, -1.269045852697379, -0.4355703437394625], [-0.8544092078774643, -1.5345146367869027, 0.6694804427171228, 0.964406228767845, 0.19977140513672362], [2.529234639349703, -1.5018921795661473, -0.8456136690854928, -0.4843732985781186, 0.04302177049350231]], "d": [[0.6202123955469253, 1.4066917824093215, 0.6376557053751563, -0.28891026336632253, -0.438344387999762], [-0.6186858830718224, 2.372288340037697, -1.061755993079756, 2.7252935008846966, 1.402951258269027], [0.5817310045686194, -1.3612984451697445, -0.009824671657338463, 0.026292917323105486, 1.5462561731497486], [-0.9617080610156833, -0.46662559130990344, 0.08857027613203963, 0.595044042836093, 0.17088864456311356], [0.27271788780241013, -1.1097731309263261, -0.7638619311368933, 1.1604801890269427, -1.2426617498433943]], "e": [[0.20817621411934492, -0.41205230605730514, 0.7219108156323389, -0.0921000014182372, 0.6382362703559085], [-0.17916476098817574, -0.08140397710448545, 0.23236911286305312, -1.70820177886839, -0.7032154156233744], [0.3724249808650845, 1.2277270424473599, 1.3751055820378464, -1.4120793228080784, 1.3366834661029678], [-0.3235914559446523, 0.9662497109931361, 0.08812525289931523, 0.7220175889148369, 1.5437869969149232], [-0.48856184274586817, -1.0671280898398887, -0.5267826546791233, 0.023089533513040317, 1.7514745702648151]], "f": [[-0.8819983324868498, -1.4106238612805286, 0.8284248366553874, 0.3382900634657768, 0.8463724618280178], [-0.4008271911824725, 2.0850254743783405, -0.23951979803079998, 1.0034507026341941, 0.7353566990656201], [0.11391728512259792, 0.4696047732481542, -0.574358774257634, -2.500148907500754, 0.15270006453182816], [-0.7208300852542994, 0.9090925093372088, -0.8691338439883558, -0.3805652123787146, -0.11833260461318969], [-0.3387100734085083, -0.8249605883202249, -0.42506992099468816, -0.5173132904528701, -0.38904416057823193]], "g": [[-0.6793882472459235, 0.127511874340863, -0.012366863784758243, 0.16818127406123215, 0.7365205161612204], [0.606196615428555, -1.34176890053379, -0.8939594791411032, 1.3647707309791974, -0.11634059379716295], [1.8085611950835527, 0.48870793329828777, -0.7705050044267774, 0.1014227465141674, 0.6688869425906786], [0.017877984377756978, 1.132018309291686, 0.9063644416227792, -0.8085519127036634, -0.2526225909906574], [-0.8321049653133863, -0.6210296187114168, -0.8205564249464371, -0.06105554068165845, -1.1341589982148526]], "h": [[0.8226743236011905, -1.3509082184599475, -0.5745856708641158, 1.8661843855535942, 0.3543956675072087], [1.322370528840032, 0.3970603480134081, 0.3072854624416339, 0.5071459363380872, 0.3055362154945751], [-0.3211767259905179, 0.39704050976468686, -0.27350755671818505, 0.612457580126691, 0.8880392319050603], [-0.5555574213911095, -1.0235092423439556, -4.346902229699055, 0.44718153523408916, -1.442265013205178], [0.5788551950495158, -1.5049085262247903, 1.017774694170668, 0.4551335875269764, 0.0066267708856382265]], "i": [[0.7396074508163233, 2.1464560481973014, 2.450008683955353, -0.32820317813513206, 0.43461280173251543], [0.7175972413411549, 0.12100857647702085, -0.397825838116453, 0.21267968187186864, 2.3959658419157077], [1.5630566143369193, 1.3783932625981248, 1.2622953057100443, -0.6763040535622119, 0.7534438575302681], [-1.5195186091737878, 0.08979160132405688, -1.069239814865857, -1.1357640120924433, -0.4382222884225501], [-1.032235950943278, 0.38290078520877835, -0.1779216596829999, -2.178087789179605, -0.9602686257639529]], "j": [[-0.6844770530447678, 0.4763390171551429, -0.0184361639136229, 1.1510815901849714, -0.5026848932432055], [0.643834631218939, -0.015503135970324834, 1.2512201411448356, 1.0438474366507222, 0.28544912537848277], [0.642381705921573, 0.33094876062844236, -0.5211491974291731, 1.5663897024358417, 0.9137159853954123], [0.5732684559530221, -0.4531891037357345, -0.27581142174940587, -0.8243818055642491, 0.7608180626661588], [0.4013071343856622, 0.022850050035045647, -0.7760869998063067, 0.5386005831919132, 0.7279059113702767]], "k": [[0.26621395893777305, 0.549701873486985, 0.027683615474221487, -1.278364003873496, 0.5970710066623366], [0.09989581204936994, -1.131171224476221, 0.024230882389034727, 0.08039912392459296, 2.158367762875131], [0.9450041081884665, 1.4148747006538565, 1.293483228165779, 1.7284465548356929, -1.4833149894308604], [0.9905053458491906, 0.7821396359453647, -1.3081083722718005, 2.2123283502336757, -0.7496791606282407], [1.128072517657269, -2.050660445906743, 0.8362748444278237, -1.101319512379055, 0.29276292118469754]], "l": [[0.3689660621341566, 0.5990141457132483, -1.5848771654837928, -2.295209083031386, 1.4650011856710867], [-0.8891474668608725, -0.29169779618891645, -0.7190845409048643, 0.19412967911305629, -1.615571466604626], [-0.8686610635092333, -0.04318800708649472, 0.0859623316322257, 1.1556256835588181, 0.23086707919611338], [-0.38420249456113337, 0.7703960595844027, 0.8109971603744305, 1.362924347743362, -0.6387901517940611], [1.3559440837730996, 0.7224755595418592, 0.32861753000448213, -0.1910085922881052, 1.0866474349273934]], "m": [[1.1209193002744002, -0.9601604942649112, 0.9508435527972595, 1.4412904710725427, 0.02386152522992562], [0.5096876449111457, 0.0017655388931305945, 0.8145968040046789, -1.77543173986047, -0.46449555235626033], [0.4519324782672791, -1.1620177712288364, -2.322264028585373, -0.7573638387561166, -1.8286053255561723], [0.44478415168527385, 0.8756548142520046, 2.193565746889352, 0.3507817881960016, 0.20441931900204996], [-2.407605120873351, 2.1048527467792444, 0.3221084738535786, 0.5104654684452127, 0.47602477474545585]], "n": [[0.1340354536857421, -0.22811652428541224, -2.1871335225830753, 0.07013944904930323, -1.5437032504366808], [-0.08442133013469924, -0.034927128515756065, 0.8504985761257576, 0.7683756637852251, -1.2322001830157123], [1.3658612959260499, -0.4319680952881154, 1.196197608999778, -0.15575331330394354, -0.012691934320914207], [-0.8741001632136307, 1.3456111853496764, 0.0843639121397934, 1.137046990064709, 1.5482282168627466], [1.0066979168854047, -0.8876005246219739, -0.500876867105529, -1.1529957034688634, 0.5304981463760425]], "o": [[0.31566646345764726, -0.688408190684768, -0.42941407574434903, -1.3935918912475251, 0.6099299569525922], [-0.6998466847461746, -0.7394762848895483, -1.511727543814717, -0.8409070858621255, 1.8115380692025156], [-0.444437376278943, 0.28948061832673455, -1.950572396733511, 0.9210451351449801, 0.6922740303620732], [0.22344597388072307, 2.3499603408789325, 0.8258039199315725, 0.36581261419738986, -0.13366874245046542], [-0.9690618648936048, -1.1057583427306585, 0.06576104562890098, 0.6152557667930528, -0.6375932270416973]], "p": [[-0.7307444968048097, 0.57788496956357, 0.5195902215302678, 0.2750253067704019, 0.5562548301252769], [-0.9301538145185432, -1.0471147582490765, -0.9725415316925878, 0.7962609496968119, 1.1865747700645832], [0.5999217593928188, -0.3240840948634299, -1.2612506281255063, 0.41707585756909704, -0.18225890748109602], [-0.1840878788809234, 0.7263023990451285, -0.46978652894327266, -0.37149450536122136, -0.16474778186648192], [-0.18142508912911665, -0.6499080050908024, -0.273795178676847, 0.3392381911211235, 0.1561957230375827]], "q": [[-1.7426739565709153, -1.3157057541906072, 0.11456401530992169, 1.4949210069348067, -2.3453217751248854], [-0.4240148147628813, 1.4939707511478235, -0.5095521956046798, -1.2471502687566693, 0.019061085825790833], [-0.7173846658407415, 0.32913498905173155, -0.7432125136680187, 0.16258459823418275, -0.9570821942776809], [1.940878148769509, 1.5171190224337667, -1.9175145875250164, -0.10989754493860945, 2.457623437905202], [-0.44853525886141793, -0.10425569796520102, -0.38531681303944376, 0.8417834560993738, 1.7662270703592982]], "r": [[0.10982933447955609, -0.055297654637957425, -0.5469429719953516, -0.14127030986794142, -1.6301150897020773], [0.3018279606626863, 1.3805976858677416, -1.9029748556886403, -2.2322101802158856, 0.4943067090797216], [-0.5560590278972769, -1.1104579957275236, 0.97101747059399, -0.020906058645694323, -0.8251878716882667], [0.47787839069468513, 0.3910908683124094, 0.3871905780969881, -0.7108860911482607, -0.6900576337059199], [-0.26207394071077866, 0.18241544513907523, 0.5401679693214909, -0.2942091909097688, -0.9267105907583334]], "s": [[-0.32007164089572615, 0.7671558888707525, 0.7007071024260693, 0.7600303318323968, 1.304784553987108], [-0.2094194818754366, -0.43058080704214147, -1.1056390497416688, -1.0771654208537957, -1.3207271872543465], [0.6794345533325129, 0.5437250885547698, -0.46647948260231475, 0.86005148088776, 0.6190053974245684], [0.002399033403072578, -1.8834425118422433, 2.233326401651741, 0.042045476677901275, 2.4107606607396614], [-0.5468072355507256, -1.7373391054841556, -1.0174600428820972, -0.1648992252598193, -0.590924475632458]], "t": [[-0.31524086978409793, 1.096055873766346, 0.2459127225160751, 0.32277360012088024, -1.0800548950430502], [-1.1298609298027185, -0.2988073254066166, 0.5192847847865937, 0.1754548914587004, 0.8089574437852246], [-0.8271929874441925, -0.03479437116414868, 0.16304594335558878, -0.09178988706949344, -0.3099547037644884], [0.6448543209036645, -0.6660422635414202, -0.625100329700612, 0.6959980291845893, 0.40788433834407656], [-2.1177388765125866, 0.8545412253562116, 0.41479853719238924, 1.3269761959679303, 2.062277422904176]], "u": [[-0.3324039198816722, 0.20923917758999844, 0.5047185478322764, -2.0359445430574503, -1.5481326746931172], [-0.17097071089674237, 1.7385294281257304, 2.1211222697365137, -0.8719274936405672, -1.145902731843468], [1.002502735507302, 0.5602554337119027, -1.1536929113159595, 0.10222998714849206, 1.3140273299620178], [0.10446004649278602, 0.8853800867192314, 0.3968625276724608, -0.4953397559765814, 1.1206772069160564], [1.8258490292986964, -1.3543414492127417, 0.07770563577226752, -0.17897899611231638, 1.649109112285192]], "v": [[0.5204515357128422, 2.9975015772673035, -0.2339882281677131, 0.8552638675890536, 0.753055066191517], [1.427478202485995, 0.5027311127729369, -0.7105640246955692, -0.2361053585798923, 0.32164118306077233], [-0.012173531986807758, -1.0823834383934894, -2.1879475527011074, -0.7148004646455627, 0.45102392937457436], [-0.2637780038563126, 0.59381143893737, -0.4267308959108319, 1.1604562072232618, -0.3780710833211035], [0.9371684317623274, -0.4872096658490794, 1.7792971526484644, 1.4947726144079039, -1.053539513970406]], "w": [[-1.2023364258295781, 1.9433346319214995, -0.5502531512531664, -1.686526102523818, 1.8046110887376299], [-0.1371851160892815, 1.2666827000186505, -0.15534924696035143, 1.7129214669796153, -1.1765223958182933], [-0.03654414587834145, -2.190335557881353, -1.8902760496448314, 0.032919354212224174, -0.41082694070276154], [0.6154535720408327, -0.683308840775284, 1.122343593407282, -0.565277998909812, 1.8585096092846833], [-0.31494972747609984, 0.5340316501286485, -0.646194525876677, 0.6396982392515976, -0.9617509971562325]], "x": [[-0.1029965613697327, 1.1550910496795466, 0.5407284092261248, -1.6853028421588536, 1.1607239691422213], [0.32906527252907614, 0.24736455039930993, 1.1400296012719553, -0.3841631084704242, 0.27683117828488535], [0.9207366874343232, 0.2929087960263639, 1.7481977701282443, 0.018452184247448836, -1.5652619892271076], [-0.7163142579264415, 1.1324091681498183, -0.7016748167740764, 0.3318430665886394, -0.14400747749414172], [-0.8780267545101991, -1.1344337492990393, -2.002429637255505, 1.0109801765104867, 2.427093882351394]], "y": [[1.7739723293764806, -0.36144285883183985, -1.4764115172632288, 0.6540172881882083, 0.16044459980656361], [1.2903443944067605, -0.756387461564453, -1.5331743440390198, -1.20226596945579, 0.868567208614185], [-0.045853362819307165, -0.5577808668855329, 0.39335728450225027, -0.16733878426942536, -0.864442422010758], [-0.20689664201063762, 0.3400341090206257, -0.3164958455798992, -0.2554223965100113, -0.5293605948506289], [0.739431645999637, 0.4330180001519936, -1.6453023821564412, -0.5121811467384204, -0.34616381339697905]], "z": [[0.6322958169298594, -0.5645345110704013, -1.3108412753890544, 0.664978182380251, 0.947419115699005], [1.171273237281766, 0.21692155715347658, -1.1491072286631232, 0.11942003974319203, 1.2842071256070116], [-0.7083555651064037, 1.2963155890671798, -0.6647020113473479, 0.2370450168581047, 0.32304964459187896], [-1.2304888635146698, -0.054172300509684336, 1.5031022979689972, -0.19680598563489246, -0.39719777995470346], [1.1760292377959, 0.5643295651967811, -0.2284708502521669, -1.470354400953891, 0.3183814509579638]], "A": [[-1.3365019030274934, -1.438548261740929, -0.35527610157401635, -0.5306936163765881, 0.8363361391036913], [-0.6867745751210562, -0.06377652576753803, -1.5138148728871805, -1.0783300831360765, -1.376043537917459], [0.7828576630675594, 0.2776589711671051, -0.3489767002537365, 1.656834736142081, 0.2108223543082464], [0.33216805277997186, 1.1561345318781806, 0.7889237217089599, 0.9868447894625241, 0.3453562066590208], [0.2767866591483291, -0.5613010717661135, -0.38645890384610876, -2.5451762061486836, 1.022923195258377]], "B": [[0.8019859417953393, 0.25221048089557724, 2.0975099872807275, 0.9916521247801852, -1.4749911994195033], [-0.35294631079710115, -1.2111159282957322, -1.5719181548844363, 0.6063392040773639, 1.9223723829212096], [-0.9327268756508584, -0.4710277821190614, -2.0325803579405166, 0.20127760314986948, -0.45714138741478977], [-1.9257807749033466, -0.8114269752179527, -0.7436908502546236, -1.508147780658158, -0.9069060116157782], [0.033212548870226725, 0.3000967055020175, -0.6518269043655863, 1.349114803137416, -0.907281751985075]], "C": [[0.18282038577740103, -1.8516262884275643, 0.720148874300128, 0.9717398125211792, -0.6450507381951942], [-0.4925748065562387, 0.2053710843752991, 0.7590758265607885, 0.3990330067019535, -0.2952067195929207], [-1.0697716981780636, 0.4477997116553009, 0.22518737434345126, -0.5113424674701507, 0.6407757150799673], [0.29735474445236093, 0.785681564131845, 0.4155412175522322, -0.755784410434533, -1.3280845086737458], [-0.8941510671968536, -1.433531418245396, -0.13856152192850252, -2.594394487397852, -0.056443004132300224]], "D": [[-2.3744824663568633, -0.399067234870515, -0.5624339782965296, -0.20971333253919663, 0.2859559947214925], [1.1612392274884151, -1.184672639523527, -0.49986558165726463, 1.3028269356165671, -1.3963053505812724], [-0.5638817436116326, -0.9462137761419848, -1.453246781806823, 1.6872867603888642, -0.7525884978492096], [0.20604672110557534, 2.061409854308535, 0.9103890787371791, -0.511642013257028, -1.6325556423736454], [2.2365888604268713, 0.1080389421591492, -1.4708616594440793, 0.9340760021230322, -1.5767164518278647]]}}