{"ini": [-0.8239429511952396, -0.11197898520036323, 0.21996308826169306, -0.778790024973088, -0.5712513747453045], "fin": [-0.23054922411896203, 0.29232122720133963, 0.6973354235949161, 2.0006720537005505, 1.1089688800970245], "trans": {"a": [[0.08695800199075507, 1.2870732197742107, -2.103688904724674, 0.7413797608173652, 0.4638675601588829], [0.5254520531400417, 2.7090908378709817, 0.6440889192505301, -1.2609732083660488, -0.00040755599955471725], [-0.5544100048782836, -0.7459473972617812, 0.717663917381943, 0.7471672960562035, -0.7899758001157322], [1.5823229506063545, 1.6356621740940889, 0.6746093451691386, -0.06425381999928449, -1.1059882480901033], [-0.536731061872833, -0.4713543901769383, 2.5420775742103436, -0.807374633345774, 0.38129346321229823]], "b": [[0.0926678944661154, -1.3718276287380027, 1.5793792216611058, 0.9390317280599928, 0.3474724919343446], [0.4250258401120007, -1.0316575640449406, -0.00272587568751046, -1.786908658079436, 0.43516981754340833], [0.005351177317222618, -2.2820490736303545, 0.17909500523367564, 3.2045744804269245, 0.13404459116115372], [-0.6735213796355835, -1.0910724673873697, 0.9869594181094221, 0.7419358111950186, -0.4471250645540483], [-1.8640625269047928, -0.6628833244241623, -0.619177428650309, -0.6249078654602, -0.37964965515637367]], "c": [[0.5016028264834929, -0.8765635783054792, -1.7258127618636023, -0.38872039952409987, 0.25345508851971854], [-1.0651440830009726, -0.5732842370450257, 0.9797761180158696, -0.5743005531312927, -1.409276907169025], [-0.46858093213505825, 0.10771849948088762, -1.3352695361010574, 0.9841519700241057, -0.8774847847692682], [0.3544737552961111, 0.21263534274428678, -0.48543204240944005, -1.7400852614071811, -0.30971236731597435], [-0.5534170159338663, 0.8116161502522833, -2.140797915797086, 0.5895969485650095, -0.1919224782505938]], "d": [[-1.45980244977964, -0.045049279082261806, -1.2849538705855885, 0.07600413587652528, -1.8146068148762329], [0.2539864086289262, -1.531109273887309, -0.07142894118561344, -0.8533640810732943, -0.7534809580639933], [-0.506106544137359, 0.0002778071491608964, -0.8897538519675852, 1.0831028544241728, -0.3143720619963157], [2.3196171642692005, -1.8034031495542902, -0.4649964384417083, -1.1517760134589006, 0.453832306693945], [-1.212665028387967, -0.7159257481624663, 1.0576704143664704, 2.1341340024214417, 2.2496153864056754]], "e": [[-0.8757609833855104, -0.021353074700204623, 0.5234466166860633, -1.7130153589897057, 0.5173126508264367], [0.30362898431727287, 0.32263039043373026, -0.9795693620575865, -1.0547521594946359, 1.022066660265597], [-0.09919678482106639, 0.3121901349447972, -0.43694916985525817, 0.27817869496884384, 0.579581593745682], [1.9818156890364644, 0.9238830122486127, -0.6581112788929324, -1.0696107702341828, -1.4656809567639815], [0.9907383712266159, 0.42662268438322903, 0.08886286032855266, 2.064906545548411, -1.9788113724415666]], "f": [[0.15985905877440468, 0.22779493786904714, 0.8534346622443945, -0.8197084877208226, 1.5391365412401878], [-0.5712339813936829, -0.154954984112916, -1.1187005611557228, -0.22359020004984276, -0.02844586207064514], [0.10566032663938058, 0.21222775912565495, -1.1028570312780828, -0.17564604427695632, -0.08676938848687209], [1.1139990236523398, -1.6338606813748033, -1.3719304869792392, -1.1045190533405274, -0.6882887440594769], [1.5841971155725414, 0.5871822109708925, 1.339263021594906, 1.5117895122082619, 1.5235211736940542]], "g": [[1.8026108981922917, -2.2840457299294856, -0.20969057759811904, -1.0957336922942023, -0.4573149959350526], [0.4682768172909896, -1.0482564561676446, 1.319949828423608, -0.8757135872961355, -1.4763618314554268], [0.3301703005041758, 0.2431034182058854, -2.02144794793137, -1.1005300959816844, -1.2786241752099594], [-1.2375340868141629, 0.01761510619248735, -0.6250377475751996, 0.08804683658363432, 1.9815994676105966], [-0.07486887974251737, 0.09100044862278323, 1.3687917418910773, 1.4201457533118214, 0.216402504938011]], "h": [[0.31162128089086566, -0.04145978523633172, -0.6392088730695161, -1.1684003348127714, -0.3881650136225595], [0.1083893778422492, 0.22267961263542918, -0.15622120124642305, -0.42160844704497996, -0.9003191182681931], [0.9351023067199892, 1.0036664615129123, 0.12180983567896757, -0.6481693337406637, -1.1241290648947047], [-0.05088104676535624, -0.3455154935898308, -1.7192033207117055, 0.5254065617569057, -0.1373673430652578], [0.3144617384012334, 0.25513252437301726, -0.8068820697607234, -0.28227491086922, -0.8945848615783896]], "i": [[0.644334764597613, 1.789762707644463, 0.0022929637016417728, 0.8186658112251058, -0.43457837611509137], [3.256006601105236, 0.9009003295398282, 2.200274709976006, 1.9430360289418789, -0.21872880213423765], [-0.1738593508944308, 0.4231049633959927, 1.5914321766337278, 0.5389122085739719, 0.9629253174208583], [0.10526140597605423, 0.19511623811188988, -1.8409091669154967, -0.9281279229317889, 0.44611867545215844], [0.07540900427479238, 0.5898951133163137, -0.7298493459689838, 0.17163329330142468, 0.4685376692405473]], "j": [[0.09130221507563899, -1.0293613291370725, -1.9217498600539642, -1.6020024748280424, -1.9439106344472896], [0.767395489594916, 0.10100379346126882, 0.5528652249280017, -0.046942421872644746, -0.2055772301321248], [-1.328919824044258, -0.031818392101951046, -0.8826485069989876, 0.3460386709853536, -1.0171472194126396], [-1.6335149904039163, 0.758596650225471, 1.1526664245601512, 0.48971002219214127, 0.7294113851530457], [-0.5548487077975532, -0.9521232301379764, 0.3803847837869227, -1.8231357080483575, 0.9839970634321357]], "k": [[-0.48222736431664365, 0.5415391128969951, 0.4280727189197714, -0.4943487540006042, -0.08099600111587164], [0.1770640438328495, -2.056744995227022, 0.9519435755433174, -0.48265543194336463, 0.22322927681943666], [-0.24261711637715164, -1.5009260741611963, -1.158701582496924, 1.8548458738770703, 0.6529630579456754], [0.06818825098828225, -1.5199520984245136, -1.0583587462163317, -0.09589610116439043, 1.6901772902932435], [-0.519407681064478, -0.5372690349013964, -0.6543010001889885, 0.5411492886953791, -0.30468467749726336]], "l": [[-0.05608209784906482, -0.5556131422495623, -1.8395119425287996, 0.08887013400039595, -1.0825175825433673], [-0.540838758554741, -0.1557277421790668, -0.4757489957072436, -0.04415112910234325, -0.5984747898979297], [-0.6027887280367757, -1.0922482624347327, 2.0375461907820345, 1.0962478408712593, -0.42733364557340126], [-0.6014443805239962, -1.1051061548096166, 0.05675550885822997, -0.5767488080231732, -0.331611576564953], [0.6747281713552657, -0.11556858382680583, -0.35113869178022, 0.8116758730069733, 0.16415012835580717]], "m": [[0.519033563811201, 2.3616425200652795, -0.2214551683904785, -0.5171619680939685, -1.0146790445865335], [-1.507526618971365, 0.26921459830258454, 0.12199436288892365, 1.0432743293807096, -0.035186491188468824], [1.6440396916216256, 0.32110523966596266, 0.024690079324460986, 0.623889394091021, 0.31732321826571047], [0.8076849268472407, 0.5461209561257245, -0.2975523616387816, -0.27440418325992, -0.6648919311595396], [1.0302594383068464, -0.2895298957186267, 0.06135944454791708, -1.5288459256484714, 0.4963612958312737]], "n": [[-2.252672299793971, -0.522008720034848, 0.7462532364468666, 0.09434689259861449, -0.6770035439146427], [0.27868881457341516, 0.3346603613726565, -0.8614552470381296, 0.1312782450319027, 0.43302555172328144], [-0.5362497337638777, -1.4936853346131373, 1.0583410321955626, 0.15160550665173073, -0.47781444494630737], [-1.2790036879440787, 1.2667027473631016, 1.3930206576313224, -0.45519698342869114, -1.2521434019742073], [0.484429650087482, 0.5059579104447623, -0.8568528063169686, 0.9127196905941106, 1.4439078313664613]], "o": [[-0.2859794131404077, 0.033898425175094456, 1.9024199618900794, -1.0820985987773173, -0.7582765532466055], [-0.8385445163145527, -0.2858317713097456, -1.0819960478304156, 0.9483210904345901, 0.35896689081883904], [0.07074576376893846, -1.1205905806004013, -0.2747409663260056, 1.5675224902176614, -1.6457148842722695], [-1.3489287084195445, 1.0913041828217371, 0.17447845628176173, -0.6515554552664572, 1.4205856167788569], [1.6856697985193565, -0.011671310174604155, -1.054952997469475, -0.449291692873845, 0.915949188684741]], "p": [[0.20174681316892373, -0.009527572366672326, 0.2257929247788087, -2.169583104583818, 0.8245001023119805], [1.1553419882088933, 0.09843391198224262, 2.4093840560199977, 0.6048119170555076, -0.6089136713049867], [-0.27256520063677375, 1.0228626610442106, 0.8922384607209685, 1.3443551418281154, 0.9341331350579226], [1.1300791823470782, 0.45444426986282566, -0.18049764950191266, -0.6636331592697581, -0.7539108962914092], [-0.01430149568762074, 0.6375258448707661, 0.46967466614505116, -0.6462819227803892, -0.06460403807444332]], "q": [[1.0033967234380905, 1.0380004640262772, 1.3147094901965335, 0.3245555598485832, 0.7269729227520756], [0.7689002675158061, -0.0010335274981720494, -1.8892674286162323, -0.9086590575762348, 1.508360026613611], [0.9426215395846365, 1.2695631087501362, 0.9520916541166287, 0.7602515416752214, 0.3213142048591281], [0.7379643166198201, -0.9965381778951787, 0.03853575313902821, -0.35597861262824054, 0.9224936865589776], [-0.11330930825246545, -0.4452898617323089, 0.468094288577737, -0.10917164135498754, 1.77123266449877]], "r": [[0.2545457891792385, 0.3622847092578331, -0.3719375141804641, -0.5443753052521837, 0.6269165954669066], [-1.2893488227986047, 1.262029096870973, -0.4182786724414829, 2.2948216952193983, 0.7978517127837258], [-0.5232549356171236, -1.4631534189726725, -1.0530089513019765, 1.9764039624633403, -0.18503840303662847], [-0.27940661324915206, -0.1678137955984837, -0.05653319710439992, -1.9767497855116392, -0.4791132401737413], [0.18168525418508416, 0.16296570893285664, -0.7495351016586077, 1.0146457379745, -1.7784055888776102]], "s": [[-1.5994291245906598, 0.947520547411405, -1.0016567410286277, 0.0551967815564335, 0.3724657166101533], [-0.177474651892075, -1.093918637985755, -0.8573236554202762, 0.5167116657774197, 0.34941573037452384], [0.6908474004156987, 0.9020726223521952, -1.600976717745335, 0.5956474616256404, 0.07456862724939464], [-0.7409754039519434, 0.7392526515101686, -0.8885060113583687, -0.37293327059404546, -0.09334713318027785], [-1.0186925722264655, 1.0500092538126082, 0.6724606931748274, -1.0763601112818661, -1.178130616821713]], "t": [[-1.2478370288003977, 1.441227807719795, -1.4595908591443072, -1.904254140732516, 1.520615038488722], [0.5075049931885516, -0.43468720409347295, -0.20371718784663773, -0.9096387386098511, 1.1494530220498558], [1.616839914909475, -0.12658132181659787, -0.28114942270606974, 0.2517207315551091, -0.9723966876317571], [-2.4506362403062054, 1.4559526327464667, 0.3186022000069293, 0.5216157606439206, -0.5468052020571077], [0.4439436817988446, 0.012391512122410667, 0.27020438536803626, -0.7317283107325262, -0.8254568823784566]], "u": [[0.35312051539594325, -1.2854268634497164, 1.6806758064329113, 0.41720492275885857, 0.6360180937396857], [2.276359992700168, -0.14865933900124517, -0.35434423229151407, -0.8321538215172711, -2.129731691608971], [1.3277780812004387, 0.05911068883360275, -0.8695281365206677, 0.936187310827326, 2.042547664349341], [0.43909494725735243, 0.659311192416947, 1.016328307688798, -0.8099938630309743, 1.789345735639083], [-0.17717207605178, -0.9970448159813747, -1.2422968905464737, 0.6563687218795455, -1.4720383797042111]], "v": [[-0.2908260296224932, -0.4550843243473889, -1.6682752692737983, 0.4753284176520616, 2.5322032704358257], [-0.7679343950545143, -1.651288746698913, -0.6906888561222848, -1.075322038821946, -2.2155212523144687], [1.6048148814511678, -0.573588954357018, 0.17655132604503865, 0.2339072628761749, -0.46910454719784833], [1.459309493467663, 0.4367187585263321, 0.7777941188232791, -1.0522678822159264, -0.3526501145548092], [-0.6722654535339654, 0.2186600859049493, -0.737063817536442, -1.7848758644973952, 1.109008052932526]], "w": [[-0.49836628430328606, 0.7309076567531663, 0.86852963668281, 0.45242959164710245, 1.2989944124704782], [-0.17369673555792445, -2.6626553993228335, -0.8785557881529523, 0.8349195569593767, 0.22302088039949172], [-1.6511306661771827, -1.445371654087748, -0.614023535157817, -0.19459655317182437, -0.06619106424593002], [1.4920183308958932, -0.9567381447641446, 1.3662563107943253, 0.8579473635568932, -0.18934940630130212], [-0.7016041464971505, -0.5391040173079775, -1.0426006633329539, 0.034116112841298285, 0.8293202341668066]], "x": [[-2.688402722047454, 1.2126792895721912, 0.4763272862403716, -0.04060761590940405, -1.2584974992984355], [0.8914428301044909, 0.006891552873235614, -0.5534158169137883, 0.21045815297895962, -0.6988727543381865], [-0.07813614989945705, -0.33942819153353443, 0.981413472745982, -0.39908277024324684, -0.11628467888674426], [-0.8970293180731581, -1.563715787214372, -0.45588317359337566, 0.21107023009178574, -0.23501191261291043], [0.2586679351193763, -0.4176915312782875, -0.8081456481754954, 2.121363874315593, 0.35437505035483896]], "y": [[-0.08443579180461738, -0.7405613678694649, 1.741537672475842, -0.6144415110110609, -0.27035545019840096], [2.0038127054003523, 1.125296323554855, -1.3411637553232791, 0.7746441811993344, -0.36838244410318066], [-1.6252549564889542, 0.9408130841764332, 0.597524288171676, -0.015089220494437493, 0.6722663913335449], [-2.549653176701768, 0.07895178017351454, -0.71453735980507, 0.3574236410622312, -0.518174180157253], [-0.6949774916028126, 1.1588802546294954, -0.6266545438540168, 0.6772526354068195, -0.7752862355039064]], "z": [[-0.7124687069781298, 0.7475857809952455, -1.0797478724736915, -0.5889580781595716, -0.9139585382661848], [-0.5837118602279409, 1.5383163776088238, 0.9718583859327644, 0.18950887348887285, 0.7381158043900959], [-0.22364909108972902, -1.3409731880957887, 1.4804776696951338, 0.6997094685421493, -0.7632043204446265], [-0.20105794232139818, 2.2646858825957286, -0.08008170619574155, -0.03314992341413867, -0.3380724536379335], [0.06692088807074156, -1.7233929833511035, 0.6994739398775203, 0.3078517783077147, -1.2101745876735066]], "A": [[0.14486123347937452, -0.1380638375753819, 1.639022818304936, 1.0053070899457175, 0.39197182953388293], [2.436680019846342, 0.1759507021167163, -0.5563330845641143, 0.2416370048736545, -2.180779595930962], [0.800214135421525, -1.0728138782733072, -0.20669312405631263, -1.3211212403060861, 0.5475377466480328], [0.010108366637524313, -1.9157572112002346, 0.42063581020143165, 2.904912956882087, 0.6798695478053843], [1.5334400760581648, 0.6219544085926263, 0.34878662141934463, -0.4814464905888479, -0.48428658026287125]], "B": [[-1.720020564492362, -0.6502910996821714, -0.3467666289363765, -0.14745654590116014, -0.5744173298354983], [-0.8020240377326169, -0.8334285167982859, 0.8619335736763747, 1.401574095632508, -0.9949697326567345], [0.31416729219267264, 0.4434627407555589, 0.05841693169926677, 2.4470799325984656, -0.9086860642612311], [-0.6056100728689291, -0.02367222595374883, 2.447378378897553, -0.08889570192431462, 0.17596720360198295], [2.155251497970099, -0.36688801100521945, 1.2161671290935194, 0.8535592772718009, -1.4072419763218162]], "C": [[-0.11999347292480107, -0.22976174134859922, -0.5067112966848617, 1.3871213100064825, 0.10410989698453676], [0.5277421727919984, -1.2647488916843599, -0.23794187125893976, 0.45885176866843785, -1.3095702949499552], [-0.6569571985791497, -0.8468614775485529, -0.443601185801636, 1.6891956307936853, 0.14604704296720966], [-0.5872852133811861, 1.0153256912730526, 0.5172554515064266, -0.43002526096440413, 2.3981531254218957], [-0.5772427531017885, 0.8704430260136432, 1.1051873765223652, 0.5491059848125631, -0.05725587913244981]], "D": [[-0.7056498192546028, -0.16440838724612478, 0.35242913305381945, 1.000170556097474, -1.1072821970153153], [1.914005378907559, 1.979977834117451, -0.4386451368877797, 1.166671430376216, -0.5056183084765709], [-0.1515097446151662, -0.01866326227429167, 0.9117707619918959, 1.9783932714304546, 0.4802926666140018], [0.48994146447916176, -0.3469862984594035, -0.902024960864697, -1.1153007301498477, 0.21729950889948974], [-0.8757795050752909, 1.8624361596014662, 0.0017520958175194184, 0.8404760770399384, 0.6678345032096682]]}}