{"ini": [-1.4481455717410534, 0.028977762042220977, 1.4870768401614411, -1.252570626023075, 0.024533880508190865], "fin": [0.38787247025569066, 0.2155234271831271, -0.0522147792936079, 1.3338747018629642, -1.6887067383454168], "trans": {"a": [[-1.219403339843432, 0.71136873716019, 0.25273344373806556, 0.6582121581468049, 1.0036175960434162], [0.5001955399113746, 1.2635947539459491, 1.0752745729775357, -2.3665247296609104, -0.9922568261254814], [1.034288927869715, -0.4736412093866309, -0.3117140596825548, 0.029132728498139863, 2.050125530410441], [2.024150855144506, -0.7252879847387393, -1.727710012142604, -0.3776355300689951, 0.7081888353695598], [-0.2445747940875367, -2.592206918260079, -0.7152030237235301, -0.1879445563642122, 1.3185048235621342]], "b": [[-0.99111977625291, -0.4757383439426115, -0.8126479544226763, -0.26989466606298756, -1.740522939045282], [0.6890403314733741, -0.3136319232005316, 0.10823931299426447, 0.2563538275475859, -1.0967881585972195], [0.4630657979393494, 0.16804512093002516, 0.2222644114789136, -0.8851423708175947, 0.9849031957748376], [-0.5532808665733214, -0.6988734489862429, -0.6950824751721283, 1.696523355538901, 1.2846834087425298], [-1.025266952435506, 1.146972792211913, 1.2233727336592553, 0.9380391208952866, 0.7820150968356543]], "c": [[-1.0958862143628414, 0.3637243230893791, 1.148542293162405, 0.9444294941670492, 1.0929957394725949], [-1.470372472221447, 0.5252993351971058, -0.9241369979929084, 0.6152806680909367, 0.9805754318758826], [-0.1390977580809053, 0.12860003634105943, 0.5880794762280362, 1.040607250597435, -0.9188191873371725], [-0.5290800197665618, -0.22456015248620967, -2.7968839258300866, 0.566357907708845, -0.04368824778389511], [0.3771160447030642, 0.9436585679972253, 0.36122161212683346, 0.20536553002412247, 0.27775845021072965]], "d": [[-0.6563976192012603, 1.1951676696394777, -0.7430350382010596, 1.322824136888839, 0.7110914830105949], [1.197959777738557, -1.1161208491036871, 0.25949723555736054, -0.24263366405222378, 1.0232573971485537], [0.06356687321732579, -1.7110824346373752, -0.28665201794150885, 0.9111233878121708, -1.8416496162266234], [1.5154920574209299, 0.9151610475634183, 0.14677923482612387, 0.41241803517993836, 0.21704645401660758], [0.3755248697183573, -0.5807433495609968, 0.9737662026100791, -0.20131797166834603, 0.29874566060391405]], "e": [[1.9908952862139253, 0.857921157749908, -0.2504912898112388, 0.4973326089273307, -0.37697748369250816], [0.9419544788183516, -0.02922404984618717, -1.644180058399505, 1.1938169802622611, 0.6198668566699564], [0.7161465890610752, -1.3647276354419422, -1.955099328560074, 0.8520896253062037, 0.06865818632521542], [0.1976627114761999, 0.11209595650837183, -1.6705598423102614, -0.6856008587455151, 0.04754054893993509], [-0.5856932743692658, -0.7234027575434013, -0.1364714599079227, 0.055325025425857065, -0.7735982500007391]], "f": [[-2.1406275866948916, -0.15977239504988788, 0.9012490836672957, -0.48234514782854326, -0.38758075780846957], [0.9583106597120911, -1.6532357955596302, 0.18247123448133332, -0.6270305366250669, 0.5805085365938955], [0.3809533026166561, 1.4889992252891118, 0.39123601627112714, -0.21828438243852363, 0.06566327225696145], [0.1874743707073482, 0.4520594441782174, -1.3194430442171772, -1.8248292344414148, 0.04824880369443051], [-2.0521070043827847, -0.06947501326233368, -1.0788222555517848, 0.16572181679594744, -1.0325745994029771]], "g": [[0.4888207062128582, -1.3941323749016377, -0.4762466959466155, -0.00175657299544656, 1.4350769731567126], [-0.9888248742079436, 0.4424007495341595, -0.980776006861627, -0.5507362983836939, 0.375674228831812], [-0.9468635025168987, 0.10112194600082161, -0.6507560381725932, 2.2338682025224537, -0.28266936597310305], [0.8609227974485055, -0.9730486882751711, 0.31003119750914476, -0.15041421226647717, -1.5889170656155231], [2.739602339151313, -0.009728612680370912, 1.116214826154791, -0.254759378130032, -0.16641225522700923]], "h": [[-1.375347035369342, -0.7973656092877165, -0.5707881183704065, -0.16046088413149723, 2.9360136670627193], [0.15369541491565927, 1.9545333267080824, 1.6965475192652382, 0.04567286788916914, -2.7151066147249976], [-0.1393675535139422, -1.0295562353757517, 0.14284546165131118, -1.6528519776387267, 1.8554993048700925], [0.8532023203729828, -0.6173322640111909, -0.12427058525411169, -0.27158915799096506, 0.6625344790116766], [-0.7012762611953733, -0.30463767562251515, 0.1433749111820555, -1.2846415132319924, -0.9809467814404499]], "i": [[1.1830381480201613, 0.24754699401522884, -1.0208390514734198, 1.0095836309449924, 0.5654664415329366], [-0.3315831067784213, -0.016029346249181203, 0.010839304068454217, 0.5885605923187563, 0.28336986210552756], [-0.03582389851339533, -0.961503599819421, -0.7677941697015516, -0.654173340661494, -0.8892063431529048], [0.09338695058465184, -1.1833972734325042, 1.2279556696038525, 0.9958186380196896, 0.8240369162811596], [-0.23425984480876225, 0.6023923498855492, -1.469697864337163, -0.30519381465276363, 0.6683838024582179]], "j": [[-0.8243810730433847, 0.5207070949979888, 0.7041980018547275, 0.06887898548994524, 1.4170176496726608], [-1.1662300283429763, 1.0429239612834211, -0.14180499105432648, -0.3241189235500825, 0.3683325420644494], [-0.5449768532650964, -0.2055055280262901, 0.8961777873461424, 0.5095536849116902, -0.30716675173777713], [1.5653486610640377, -0.3613545069371362, -0.02553553271999845, 0.39796888267048464, 0.17291134703274197], [1.4099632985390302, 0.6084685363236063, -1.166057984138215, -0.6917419617010881, -0.17707089619580946]], "k": [[0.14671808047407545, -1.4628065962670533, -0.22608478532180942, 0.3420583313819731, 0.8108356996915916], [1.9969537196749811, 0.3103145179683571, 1.0947016633916664, -0.2677108609185316, -1.0634105650476324], [-1.288926957594123, 0.40639378451375413, -1.2768714250398585, -2.28126936652415, 0.7200808616956191], [-0.25317409037907995, -0.5553232742451153, -0.90934973816026, 1.4962869893505129, 1.9025080757385298], [-1.3779625452552227, -1.0791299569230248, -0.14713250917850093, 0.08398521313324768, -0.3593753093534646]], "l": [[-1.655000723602147, -1.2581084383135475, -1.4799946753217528, -1.4993819450542356, 0.5806343558624035], [-0.9547058711375027, -0.5184652732774822, 0.20041864433801337, 0.6896470121200279, 1.1903808681259789], [0.7814656742813848, -2.0579723240170287, -2.596390130247113, -0.6675522007451836, 1.0141512035565012], [0.570734274270736, 0.9777106869718049, 0.9804444968717301, -0.6906017131716659, -0.6211443497875739], [0.9877099934923868, -0.5296178360098888, 0.4807921166836962, -0.7925628438119097, -0.637076104487739]], "m": [[-2.8260383513610443, 1.2089570843316317, 0.8595446422279628, -1.2565463778954205, -0.9569477633580086], [-1.0000791644293963, -0.07865851880788557, 0.7459803221128589, 0.07986573128109578, 0.4373916820955385], [-0.7277228922625688, 0.3737814594350337, 0.8492722358844396, 1.171177807318001, 0.9705403459673395], [0.8775176521571255, 0.10224396328249749, 1.3865941312800696, 1.0160097753044781, 0.5876494915350597], [-0.7777261166673684, -1.5210983986457878, 1.2034566598965122, -0.9391998482947522, 0.4255880639411375]], "n": [[-1.1098303476160205, 0.25827998419985243, -1.650879406771831, -1.0766738059362257, -0.45212343299473506], [0.9174464332315412, -0.3896865054762351, -0.9165889880137785, -0.7049711931280619, 1.1096053589049593], [-0.21087657114975236, 1.2126108694789683, -0.7366723972276075, 0.029144020926925706, -1.228079224071935], [0.41530446600443255, 0.3218842687792721, -1.8446700859226186, 0.0970913982902379, 0.2629452281855793], [1.423319702533043, 0.005913594134385598, -1.316969614455109, 2.1999322174019875, 0.9694760924506749]], "o": [[0.8974351781120695, 0.7376392645673774, 0.19972536566263627, 0.9073407559825821, -0.007352758471087916], [0.7831507386111954, 0.01252052621733761, 0.6506584824336742, 0.9671885053952636, -0.36534856866108206], [-0.07842851982735831, -0.9904614366418569, -0.6672355215313236, 0.02477692873354625, 1.394793306624417], [-1.6287357038187655, -0.7321780276364102, -1.7668236956992303, 0.9483093436976837, 0.055427016180931654], [-0.5411637556900833, 0.08888002154329368, -0.17174356574894922, -1.4048610161404478, -0.5282184652036306]], "p": [[-0.23571919272005296, 1.4139700157967687, -0.1393720409346544, 0.6582695540425245, -0.49245350208872474], [0.7598124689602608, 0.5837160508035933, 1.776480427550024, 0.06682895535255859, -0.24227800076537376], [0.9214167721413652, 0.9725488261792743, 0.03534331131876089, 0.17899784366388816, -0.558923982477522], [0.42914072804957365, -0.3597266056268862, 0.1498463423626253, -0.10871359046981041, -0.21144767783676596], [-1.5336861177786985, 0.6782019785354625, -0.16242020445349906, 0.36716200356733086, -1.3898326392801992]], "q": [[-1.3028877426467194, -0.5555591782288216, -1.2920347698064483, -1.3113150015889417, 1.3633796395918047], [-0.5879315549688823, 0.31511675058799055, 0.4100825262979636, 0.530474917584553, 0.903696832415435], [-0.7574767308533732, -0.43433127865528703, 0.6396058969754386, -0.19149531542825637, 1.1917712846332156], [1.7536037869562346, -1.5019055899776776, 0.09975949466906203, -1.6152688736917353, 0.502040419865138], [-1.080929043057824, 0.6796688103003322, 0.6345089584464246, 1.3858583797154727, 0.09530263290815479]], "r": [[0.4248228559047668, 0.4640234888219, 1.2731784226132532, 0.07321382522044086, 0.1595455026551161], [-0.350681538147861, 0.9653776630921205, -0.41853356024723254, -0.7091497998300518, -0.33864591549750894], [-0.716508572828842, -0.6999161484584255, 0.46840857172200145, -0.726670695350606, 0.6130425538711063], [-0.7460296307334091, -1.1998818516415442, -0.6843079441516284, 1.0082989959535829, 0.3756764448945721], [0.6105123706181218, 3.2983442405605445, 0.07552531615512117, -0.5921902639876073, 0.7141361303919079]], "s": [[2.193625946048631, 0.5079148397498028, 0.8439796433868902, 1.5917498801111931, -1.1075551766207534], [-2.671304966938702, 0.7801850677013625, 0.41793611329124225, 0.7530584418629975, -0.1361798266739782], [1.3353146246940648, -0.4335499010903623, 0.3123561988681671, 0.0344098123370149, 0.75731773325464], [0.6001778258090422, 0.5733628361477432, -0.2739297342094039, 0.4938393503661875, -0.606489597761217], [-0.9605867495342896, -1.6967580187312812, 0.5796611072647634, -0.13627748956312227, 0.9708107950392032]], "t": [[0.4808327011378312, 0.603226509377505, -0.4548241645573723, 2.2796943021578264, 1.0484684230751256], [0.7463347782940962, 0.21063367405839667, -0.5614925833515274, 2.881008258236752, -0.03302816925314399], [1.038833891938935, 0.8867243376509953, 0.4424693130419965, 1.6499367436600472, 0.0328747031238624], [-0.8145287928631919, -0.11750006591667783, 0.705823434931853, 0.23836078797129762, -0.20547019321218996], [0.2575041460833059, -0.24799717868729576, 0.6172713076168306, -0.6794517932184791, -0.8621035279335466]], "u": [[-0.2287237374557159, 1.1215971692184132, -0.07323153086087507, 0.08367376630563815, 0.9872022680090573], [-0.4269869932124069, -0.03179403800898789, -1.8837436432364763, 1.0594890769320668, 1.1252455076340693], [0.6773082703390958, 0.8382906620557715, -0.9324271991247958, 0.44457567676762133, 0.6665966417858548], [-3.494248475417997, -0.2794437287752945, 0.10210687360267828, -0.1424834054877006, 0.5380135018082918], [-1.154212750624034, 0.0319857834031226, 0.06519362722925312, 2.1832160326765773, 2.076485818860759]], "v": [[1.7855833199134286, -2.168759748262309, 1.0824745418684274, 1.052525639471946, 1.763834615659762], [2.2409223504127636, -0.11164215082105532, 0.23370315214648113, 1.9536874019573551, 0.24664505102617557], [0.9328326192244153, -0.7950068839168924, -1.4965820771457, -0.43231667845459254, -0.6010850736985065], [-1.6230578741657085, 0.994917005972902, -0.8363564721976416, 0.09895477156703447, 0.9577454805689843], [-0.007342597668226096, 0.2865211631312203, -0.5170513170543201, 0.706161078580856, 0.14802282711653147]], "w": [[-1.1227875078265603, 0.4451532092400138, 0.8710517661947073, 1.353050039690481, -0.07091140047348057], [0.5094844925652711, -2.8344082697764663, 0.49397992695976967, 0.41803713063275544, -1.4721555242373778], [-1.0467024119376855, 0.03336500679801146, 0.06585776855155182, -0.699803356970086, -1.2307775580872145], [-0.6642031177332334, -0.3657157730953377, 0.6520579282621386, -0.3839886620583371, -0.2411562847862871], [0.7258424911808055, -0.5899154787463436, 0.2278052677176478, 0.5203050932768344, 2.3000961340660364]], "x": [[-1.1337634266079704, 0.2862272675287869, -0.5768777317777519, -0.41368577581533844, 0.08785888714536401], [-0.23895433448079262, -0.6464406849272518, 1.0251544109708404, -0.2153250982797264, -0.296991246554439], [1.01350145416039, 0.6772424717862233, 1.3242291800282529, -0.6997055788076967, 0.3182926958062843], [1.8379375700976592, 0.9347948936051732, 0.13579057211330275, 1.587061679113187, 0.003767470093724461], [0.30563154080047455, -0.8816671799944004, 0.09143989334598426, -1.2645094810041653, 1.0797708510401538]], "y": [[0.8440661554155479, -0.2597916765347818, -0.13264357994330844, 1.0752700619830322, 0.6075969857490354], [0.8845657936363887, -0.0052446607021719655, -0.8210398877290208, 1.6617615522312057, -0.11977291299712473], [-0.5256361910404975, 0.0015907247905683757, -1.7239401489998234, -0.6473547144452978, -1.0116965602638723], [0.5978068354466685, -2.1344518457609554, -0.2954645444017243, -1.2408693291785748, 0.08084191901754194], [-2.3374274843842056, -1.1478188351270107, 0.163088304697146, 0.25544212917879844, -0.4996750672958383]], "z": [[0.9761476200192266, -0.23105183545120908, -0.2036987553637398, -0.22100746984375477, -0.6681545489270678], [1.0302281767296113, -0.4666191830700591, 0.5855599702556077, 0.852120688762264, -0.5845687822219511], [-0.7236878273960572, -0.4338166060190998, 0.494227111372481, -0.6892504792359716, 0.6976437700374655], [0.026648180451239817, 1.2182958545493845, -0.1703473458322905, 0.9321342635929154, -1.396172357089082], [0.10917947891333443, 0.41492963817735357, 0.5654704696263038, 0.09885169650629273, -2.2093524501793715]], "A": [[1.027812540881825, -0.10465542650091969, 0.47202524221534203, -0.4962837769459712, -0.43059066896014014], [0.1502136756125497, -0.9450116466205812, 1.3774447708070434, -1.7628343647527938, -0.6729252122571073], [-0.8336061187493949, 0.2289612592527692, 2.5399076892164647, 1.5002934239665926, -0.8855748271404573], [0.9870148920194697, 0.0039953924502059085, 0.30874704834264816, 0.9889662207465533, -0.001929319877615115], [-0.5989606298609998, -0.9620594612062782, -0.7161943668106218, 0.04109792559890882, 0.02445974657573692]], "B": [[-1.4453857077621117, -0.2567847890281684, -0.7873875601346866, 1.1447689031988306, 0.8925394661545866], [-0.3269037247956274, 0.7200851101012464, -0.4165387748193456, 0.5866300296533282, 0.24117709764365006], [-0.11164101683645904, 0.2719070334526928, 1.5422695479638915, 0.0027910397892438347, 1.711450073357788], [1.1859339780118658, -0.580549874734922, 2.9813948733987576, -0.24285240358209637, 0.5651168692126688], [-0.5813500734495526, -0.9747049386411402, 0.6476060726899179, 0.18830287851031532, -0.392557725580543]], "C": [[-0.27699715964282406, 0.3284545725114512, 0.30648709155077664, 0.5765156000771784, -1.804530486901325], [3.0684038973289773, -0.9479374831780265, 0.713293082019942, -0.43577807766292015, 0.0524440433974375], [0.6083445806147983, 0.564697413199909, -0.4407333261130562, -0.5254649227716565, -0.43496866191367084], [-0.5124428491202427, 1.7068817702565602, -0.7607900860056085, -2.0801050054406915, 0.1323071858729636], [0.5237679994777851, 0.10247221252636099, -0.9750981497493597, 0.5113511299582834, 0.5286149447193199]], "D": [[-0.41420433220647845, 0.11547120185625374, -0.08586231770459732, -0.16880301545567367, 1.1948077148461167], [2.118095659972592, -2.199348545500208, -2.057658941697906, -0.3156473223744208, -0.55927859042394], [-0.9993854275074897, -0.9951955017921407, -0.9048213204526099, 1.9652876479747001, 0.16290359591329498], [0.7535187234585075, -0.13003589779042551, 0.8981317206634807, -1.1723281324754518, 1.903555257019265], [0.22855851930202828, 1.2801644908059362, 0.1840265238119579, -0.4202926572020321, -0.43131585124502]]}}